<?xml version="1.0"?>
<opencv_storage>
<cascade>
  <stageType>BOOST</stageType>
  <featureType>HAAR</featureType>
  <height>16</height>
  <width>16</width>
  <stageParams>
    <boostType>GAB</boostType>
    <minHitRate>9.9900001287460327e-01</minHitRate>
    <maxFalseAlarm>5.0000000000000000e-01</maxFalseAlarm>
    <weightTrimRate>9.4999999999999996e-01</weightTrimRate>
    <maxDepth>1</maxDepth>
    <maxWeakCount>100</maxWeakCount></stageParams>
  <featureParams>
    <maxCatCount>0</maxCatCount>
    <featSize>1</featSize>
    <mode>ALL</mode></featureParams>
  <stageNum>20</stageNum>
  <stages>
    <!-- stage 0 -->
    <_>
      <maxWeakCount>9</maxWeakCount>
      <stageThreshold>-2.5244591236114502e+00</stageThreshold>
      <weakClassifiers>
        <_>
          <internalNodes>
            0 -1 108 2.7153575420379639e-01</internalNodes>
          <leafValues>
            -8.8635385036468506e-01 8.5974431037902832e-01</leafValues></_>
        <_>
          <internalNodes>
            0 -1 449 1.4426064491271973e-01</internalNodes>
          <leafValues>
            -6.7872470617294312e-01 6.8163615465164185e-01</leafValues></_>
        <_>
          <internalNodes>
            0 -1 202 1.7083403468132019e-01</internalNodes>
          <leafValues>
            -3.3832824230194092e-01 9.0397953987121582e-01</leafValues></_>
        <_>
          <internalNodes>
            0 -1 333 6.9055005908012390e-02</internalNodes>
          <leafValues>
            -2.5754863023757935e-01 7.3531562089920044e-01</leafValues></_>
        <_>
          <internalNodes>
            0 -1 194 -9.8427785560488701e-03</internalNodes>
          <leafValues>
            -8.2194912433624268e-01 2.8005293011665344e-01</leafValues></_>
        <_>
          <internalNodes>
            0 -1 7 2.1731823682785034e-01</internalNodes>
          <leafValues>
            -2.7559390664100647e-01 8.7832468748092651e-01</leafValues></_>
        <_>
          <internalNodes>
            0 -1 140 6.6207041963934898e-03</internalNodes>
          <leafValues>
            3.1832933425903320e-01 -8.3612680435180664e-01</leafValues></_>
        <_>
          <internalNodes>
            0 -1 168 -5.4100304841995239e-03</internalNodes>
          <leafValues>
            -8.5259127616882324e-01 1.8554331362247467e-01</leafValues></_>
        <_>
          <internalNodes>
            0 -1 285 3.5096043720841408e-03</internalNodes>
          <leafValues>
            2.3016674816608429e-01 -8.2739943265914917e-01</leafValues></_></weakClassifiers></_>
    <!-- stage 1 -->
    <_>
      <maxWeakCount>10</maxWeakCount>
      <stageThreshold>-2.4885299205780029e+00</stageThreshold>
      <weakClassifiers>
        <_>
          <internalNodes>
            0 -1 166 1.9799235463142395e-01</internalNodes>
          <leafValues>
            -8.4404814243316650e-01 9.0270268917083740e-01</leafValues></_>
        <_>
          <internalNodes>
            0 -1 243 2.9932126402854919e-01</internalNodes>
          <leafValues>
            -6.5740692615509033e-01 7.1243423223495483e-01</leafValues></_>
        <_>
          <internalNodes>
            0 -1 241 1.1063563823699951e-01</internalNodes>
          <leafValues>
            -3.3964505791664124e-01 6.4997577667236328e-01</leafValues></_>
        <_>
          <internalNodes>
            0 -1 162 1.1862795799970627e-01</internalNodes>
          <leafValues>
            -2.8230497241020203e-01 8.3034473657608032e-01</leafValues></_>
        <_>
          <internalNodes>
            0 -1 88 4.6917782165110111e-03</internalNodes>
          <leafValues>
            3.2396847009658813e-01 -8.1048667430877686e-01</leafValues></_>
        <_>
          <internalNodes>
            0 -1 140 -7.6158046722412109e-03</internalNodes>
          <leafValues>
            -8.1638950109481812e-01 2.5249752402305603e-01</leafValues></_>
        <_>
          <internalNodes>
            0 -1 350 -1.7101261764764786e-03</internalNodes>
          <leafValues>
            -8.3917272090911865e-01 1.5915328264236450e-01</leafValues></_>
        <_>
          <internalNodes>
            0 -1 347 2.1000686101615429e-03</internalNodes>
          <leafValues>
            1.9295710325241089e-01 -8.9409279823303223e-01</leafValues></_>
        <_>
          <internalNodes>
            0 -1 398 -7.4886585935018957e-05</internalNodes>
          <leafValues>
            4.2602100968360901e-01 -4.2921441793441772e-01</leafValues></_>
        <_>
          <internalNodes>
            0 -1 195 1.5202166978269815e-03</internalNodes>
          <leafValues>
            2.0440024137496948e-01 -7.4778097867965698e-01</leafValues></_></weakClassifiers></_>
    <!-- stage 2 -->
    <_>
      <maxWeakCount>9</maxWeakCount>
      <stageThreshold>-1.9083383083343506e+00</stageThreshold>
      <weakClassifiers>
        <_>
          <internalNodes>
            0 -1 158 2.7806520462036133e-01</internalNodes>
          <leafValues>
            -8.0020594596862793e-01 8.3726811408996582e-01</leafValues></_>
        <_>
          <internalNodes>
            0 -1 337 1.1439120769500732e-01</internalNodes>
          <leafValues>
            -6.7816400527954102e-01 4.4828289747238159e-01</leafValues></_>
        <_>
          <internalNodes>
            0 -1 292 7.2266101837158203e-02</internalNodes>
          <leafValues>
            -5.3716224431991577e-01 3.8578015565872192e-01</leafValues></_>
        <_>
          <internalNodes>
            0 -1 249 6.1598550528287888e-03</internalNodes>
          <leafValues>
            1.9637018442153931e-01 -8.4709423780441284e-01</leafValues></_>
        <_>
          <internalNodes>
            0 -1 106 -6.9593355059623718e-02</internalNodes>
          <leafValues>
            6.5164572000503540e-01 -2.6693192124366760e-01</leafValues></_>
        <_>
          <internalNodes>
            0 -1 164 1.8993808329105377e-01</internalNodes>
          <leafValues>
            -2.5824421644210815e-01 8.7367379665374756e-01</leafValues></_>
        <_>
          <internalNodes>
            0 -1 661 -1.5099626034498215e-03</internalNodes>
          <leafValues>
            -7.8192740678787231e-01 2.2797754406929016e-01</leafValues></_>
        <_>
          <internalNodes>
            0 -1 361 1.2364329304546118e-03</internalNodes>
          <leafValues>
            2.0896285772323608e-01 -7.5819557905197144e-01</leafValues></_>
        <_>
          <internalNodes>
            0 -1 362 -3.2964483834803104e-03</internalNodes>
          <leafValues>
            -9.2506593465805054e-01 1.1958149075508118e-01</leafValues></_></weakClassifiers></_>
    <!-- stage 3 -->
    <_>
      <maxWeakCount>15</maxWeakCount>
      <stageThreshold>-2.5909469127655029e+00</stageThreshold>
      <weakClassifiers>
        <_>
          <internalNodes>
            0 -1 156 3.2830035686492920e-01</internalNodes>
          <leafValues>
            -7.2153908014297485e-01 7.9588103294372559e-01</leafValues></_>
        <_>
          <internalNodes>
            0 -1 248 2.3199263215065002e-01</internalNodes>
          <leafValues>
            -5.1764798164367676e-01 4.4739717245101929e-01</leafValues></_>
        <_>
          <internalNodes>
            0 -1 271 -4.0182564407587051e-03</internalNodes>
          <leafValues>
            -8.5173916816711426e-01 2.1332678198814392e-01</leafValues></_>
        <_>
          <internalNodes>
            0 -1 28 1.6279496252536774e-02</internalNodes>
          <leafValues>
            -6.3674569129943848e-01 2.9638245701789856e-01</leafValues></_>
        <_>
          <internalNodes>
            0 -1 134 1.0416239500045776e-02</internalNodes>
          <leafValues>
            2.3231630027294159e-01 -7.6536214351654053e-01</leafValues></_>
        <_>
          <internalNodes>
            0 -1 331 7.2664598701521754e-04</internalNodes>
          <leafValues>
            1.5168623626232147e-01 -8.0608206987380981e-01</leafValues></_>
        <_>
          <internalNodes>
            0 -1 276 -9.4843195984140038e-04</internalNodes>
          <leafValues>
            -7.9205679893493652e-01 2.1461671590805054e-01</leafValues></_>
        <_>
          <internalNodes>
            0 -1 338 1.3755059242248535e-01</internalNodes>
          <leafValues>
            -3.0708104372024536e-01 6.1087036132812500e-01</leafValues></_>
        <_>
          <internalNodes>
            0 -1 266 1.4959340915083885e-03</internalNodes>
          <leafValues>
            -3.1662243604660034e-01 4.0761846303939819e-01</leafValues></_>
        <_>
          <internalNodes>
            0 -1 419 -6.4067821949720383e-04</internalNodes>
          <leafValues>
            -7.4146717786788940e-01 2.0418520271778107e-01</leafValues></_>
        <_>
          <internalNodes>
            0 -1 413 -4.0453430265188217e-03</internalNodes>
          <leafValues>
            -6.8094539642333984e-01 1.3874414563179016e-01</leafValues></_>
        <_>
          <internalNodes>
            0 -1 336 3.9649605751037598e-03</internalNodes>
          <leafValues>
            1.6989190876483917e-01 -6.2432312965393066e-01</leafValues></_>
        <_>
          <internalNodes>
            0 -1 346 6.3212700188159943e-03</internalNodes>
          <leafValues>
            -3.7391462922096252e-01 3.1249779462814331e-01</leafValues></_>
        <_>
          <internalNodes>
            0 -1 344 -4.2939392733387649e-04</internalNodes>
          <leafValues>
            -6.5151363611221313e-01 1.4900168776512146e-01</leafValues></_>
        <_>
          <internalNodes>
            0 -1 212 -1.3515269383788109e-02</internalNodes>
          <leafValues>
            6.0072857141494751e-01 -2.1622702479362488e-01</leafValues></_></weakClassifiers></_>
    <!-- stage 4 -->
    <_>
      <maxWeakCount>15</maxWeakCount>
      <stageThreshold>-2.1140677928924561e+00</stageThreshold>
      <weakClassifiers>
        <_>
          <internalNodes>
            0 -1 156 4.1368728876113892e-01</internalNodes>
          <leafValues>
            -6.4677447080612183e-01 8.5497838258743286e-01</leafValues></_>
        <_>
          <internalNodes>
            0 -1 360 6.2958881258964539e-02</internalNodes>
          <leafValues>
            -5.8497130870819092e-01 4.2049637436866760e-01</leafValues></_>
        <_>
          <internalNodes>
            0 -1 373 -7.8067876398563385e-02</internalNodes>
          <leafValues>
            4.3990987539291382e-01 -3.6894926428794861e-01</leafValues></_>
        <_>
          <internalNodes>
            0 -1 233 -4.6576820313930511e-03</internalNodes>
          <leafValues>
            -8.1264007091522217e-01 1.7692756652832031e-01</leafValues></_>
        <_>
          <internalNodes>
            0 -1 450 1.9128707936033607e-04</internalNodes>
          <leafValues>
            -4.9102491140365601e-01 2.8096160292625427e-01</leafValues></_>
        <_>
          <internalNodes>
            0 -1 234 5.0266133621335030e-03</internalNodes>
          <leafValues>
            1.2193630635738373e-01 -7.8913068771362305e-01</leafValues></_>
        <_>
          <internalNodes>
            0 -1 331 -8.6469098459929228e-04</internalNodes>
          <leafValues>
            -8.2903110980987549e-01 1.2901337444782257e-01</leafValues></_>
        <_>
          <internalNodes>
            0 -1 423 6.7247287370264530e-04</internalNodes>
          <leafValues>
            1.8809589743614197e-01 -7.0999395847320557e-01</leafValues></_>
        <_>
          <internalNodes>
            0 -1 105 1.4521510899066925e-01</internalNodes>
          <leafValues>
            -2.3545150458812714e-01 7.2034353017807007e-01</leafValues></_>
        <_>
          <internalNodes>
            0 -1 427 4.6402715146541595e-02</internalNodes>
          <leafValues>
            -1.7246270179748535e-01 6.4744889736175537e-01</leafValues></_>
        <_>
          <internalNodes>
            0 -1 281 1.1836519837379456e-01</internalNodes>
          <leafValues>
            1.2447967380285263e-01 -8.7083810567855835e-01</leafValues></_>
        <_>
          <internalNodes>
            0 -1 262 -2.5019869208335876e-02</internalNodes>
          <leafValues>
            -7.4979877471923828e-01 1.2493104487657547e-01</leafValues></_>
        <_>
          <internalNodes>
            0 -1 484 7.0693204179406166e-04</internalNodes>
          <leafValues>
            -3.4358280897140503e-01 3.0112919211387634e-01</leafValues></_>
        <_>
          <internalNodes>
            0 -1 295 1.6930982470512390e-02</internalNodes>
          <leafValues>
            -2.2432924807071686e-01 4.8988446593284607e-01</leafValues></_>
        <_>
          <internalNodes>
            0 -1 417 5.6307744671357796e-05</internalNodes>
          <leafValues>
            -3.9173564314842224e-01 2.7415245771408081e-01</leafValues></_></weakClassifiers></_>
    <!-- stage 5 -->
    <_>
      <maxWeakCount>18</maxWeakCount>
      <stageThreshold>-2.1878550052642822e+00</stageThreshold>
      <weakClassifiers>
        <_>
          <internalNodes>
            0 -1 165 6.1170226335525513e-01</internalNodes>
          <leafValues>
            -7.3590630292892456e-01 5.7170170545578003e-01</leafValues></_>
        <_>
          <internalNodes>
            0 -1 150 3.4885096549987793e-01</internalNodes>
          <leafValues>
            -2.8936195373535156e-01 8.7137311697006226e-01</leafValues></_>
        <_>
          <internalNodes>
            0 -1 458 2.5514696608297527e-04</internalNodes>
          <leafValues>
            -4.9590134620666504e-01 3.0207750201225281e-01</leafValues></_>
        <_>
          <internalNodes>
            0 -1 316 -3.3428746974095702e-04</internalNodes>
          <leafValues>
            2.6271659135818481e-01 -4.5642897486686707e-01</leafValues></_>
        <_>
          <internalNodes>
            0 -1 451 4.2712627328000963e-04</internalNodes>
          <leafValues>
            1.9829265773296356e-01 -6.0266554355621338e-01</leafValues></_>
        <_>
          <internalNodes>
            0 -1 452 -1.2819475959986448e-03</internalNodes>
          <leafValues>
            -8.5616409778594971e-01 1.7029972374439240e-01</leafValues></_>
        <_>
          <internalNodes>
            0 -1 494 4.4567063450813293e-02</internalNodes>
          <leafValues>
            -2.3928280174732208e-01 5.5228018760681152e-01</leafValues></_>
        <_>
          <internalNodes>
            0 -1 98 6.1648124828934669e-03</internalNodes>
          <leafValues>
            1.6526396572589874e-01 -7.5646567344665527e-01</leafValues></_>
        <_>
          <internalNodes>
            0 -1 5 3.5380370914936066e-02</internalNodes>
          <leafValues>
            -2.3788166046142578e-01 6.5547740459442139e-01</leafValues></_>
        <_>
          <internalNodes>
            0 -1 433 7.1816216222941875e-03</internalNodes>
          <leafValues>
            -2.6119890809059143e-01 4.3328419327735901e-01</leafValues></_>
        <_>
          <internalNodes>
            0 -1 138 -8.0067720264196396e-03</internalNodes>
          <leafValues>
            -8.3082544803619385e-01 1.4364007115364075e-01</leafValues></_>
        <_>
          <internalNodes>
            0 -1 553 5.6512765586376190e-02</internalNodes>
          <leafValues>
            -1.9007778167724609e-01 6.0514301061630249e-01</leafValues></_>
        <_>
          <internalNodes>
            0 -1 135 3.4427735954523087e-02</internalNodes>
          <leafValues>
            1.9315220415592194e-01 -6.2760162353515625e-01</leafValues></_>
        <_>
          <internalNodes>
            0 -1 135 -1.8473047763109207e-02</internalNodes>
          <leafValues>
            -6.9861787557601929e-01 1.4005310833454132e-01</leafValues></_>
        <_>
          <internalNodes>
            0 -1 42 1.9431814551353455e-02</internalNodes>
          <leafValues>
            -5.2507430315017700e-01 1.6650366783142090e-01</leafValues></_>
        <_>
          <internalNodes>
            0 -1 283 -6.5668113529682159e-04</internalNodes>
          <leafValues>
            -7.1677947044372559e-01 1.3521844148635864e-01</leafValues></_>
        <_>
          <internalNodes>
            0 -1 343 3.1977274920791388e-04</internalNodes>
          <leafValues>
            1.5647391974925995e-01 -6.5855967998504639e-01</leafValues></_>
        <_>
          <internalNodes>
            0 -1 311 -2.4695012718439102e-02</internalNodes>
          <leafValues>
            -9.3240267038345337e-01 7.3969736695289612e-02</leafValues></_></weakClassifiers></_>
    <!-- stage 6 -->
    <_>
      <maxWeakCount>17</maxWeakCount>
      <stageThreshold>-2.2175672054290771e+00</stageThreshold>
      <weakClassifiers>
        <_>
          <internalNodes>
            0 -1 152 3.5265195369720459e-01</internalNodes>
          <leafValues>
            -5.9060281515121460e-01 7.7419352531433105e-01</leafValues></_>
        <_>
          <internalNodes>
            0 -1 248 2.2220984101295471e-01</internalNodes>
          <leafValues>
            -5.4044783115386963e-01 4.1600236296653748e-01</leafValues></_>
        <_>
          <internalNodes>
            0 -1 408 2.6298230513930321e-03</internalNodes>
          <leafValues>
            -3.7577190995216370e-01 4.1879180073738098e-01</leafValues></_>
        <_>
          <internalNodes>
            0 -1 365 2.8805097826989368e-05</internalNodes>
          <leafValues>
            -5.2726650238037109e-01 1.9614405930042267e-01</leafValues></_>
        <_>
          <internalNodes>
            0 -1 436 6.0838850913569331e-04</internalNodes>
          <leafValues>
            2.5351604819297791e-01 -7.1764278411865234e-01</leafValues></_>
        <_>
          <internalNodes>
            0 -1 268 1.2678932398557663e-02</internalNodes>
          <leafValues>
            2.6136925444006920e-02 -8.7067228555679321e-01</leafValues></_>
        <_>
          <internalNodes>
            0 -1 29 2.1918308921158314e-03</internalNodes>
          <leafValues>
            -6.3352572917938232e-01 1.5230874717235565e-01</leafValues></_>
        <_>
          <internalNodes>
            0 -1 326 -2.9807435348629951e-03</internalNodes>
          <leafValues>
            -8.0042511224746704e-01 1.5920731425285339e-01</leafValues></_>
        <_>
          <internalNodes>
            0 -1 608 1.7672915011644363e-02</internalNodes>
          <leafValues>
            -3.3391788601875305e-01 3.6141601204872131e-01</leafValues></_>
        <_>
          <internalNodes>
            0 -1 448 7.8038066625595093e-02</internalNodes>
          <leafValues>
            -1.7910026013851166e-01 5.9590262174606323e-01</leafValues></_>
        <_>
          <internalNodes>
            0 -1 540 9.7259264439344406e-03</internalNodes>
          <leafValues>
            -2.1756243705749512e-01 5.1581633090972900e-01</leafValues></_>
        <_>
          <internalNodes>
            0 -1 336 -5.3828707896173000e-03</internalNodes>
          <leafValues>
            -8.4737473726272583e-01 1.4187438786029816e-01</leafValues></_>
        <_>
          <internalNodes>
            0 -1 457 -7.5237028067931533e-04</internalNodes>
          <leafValues>
            -5.6731230020523071e-01 1.3127535581588745e-01</leafValues></_>
        <_>
          <internalNodes>
            0 -1 99 1.2704415246844292e-02</internalNodes>
          <leafValues>
            1.4200943708419800e-01 -5.9920781850814819e-01</leafValues></_>
        <_>
          <internalNodes>
            0 -1 422 7.7913427958264947e-04</internalNodes>
          <leafValues>
            -3.7974363565444946e-01 2.5908946990966797e-01</leafValues></_>
        <_>
          <internalNodes>
            0 -1 275 -2.0463045686483383e-02</internalNodes>
          <leafValues>
            7.4908649921417236e-01 -1.1232938617467880e-01</leafValues></_>
        <_>
          <internalNodes>
            0 -1 64 -1.6593541949987411e-02</internalNodes>
          <leafValues>
            2.8875780105590820e-01 -3.6452925205230713e-01</leafValues></_></weakClassifiers></_>
    <!-- stage 7 -->
    <_>
      <maxWeakCount>19</maxWeakCount>
      <stageThreshold>-1.9962358474731445e+00</stageThreshold>
      <weakClassifiers>
        <_>
          <internalNodes>
            0 -1 152 4.0497827529907227e-01</internalNodes>
          <leafValues>
            -5.2679646015167236e-01 8.1320226192474365e-01</leafValues></_>
        <_>
          <internalNodes>
            0 -1 463 -6.7985460162162781e-02</internalNodes>
          <leafValues>
            4.5208713412284851e-01 -3.6080068349838257e-01</leafValues></_>
        <_>
          <internalNodes>
            0 -1 454 1.6973509627860039e-04</internalNodes>
          <leafValues>
            -6.0459119081497192e-01 1.7871575057506561e-01</leafValues></_>
        <_>
          <internalNodes>
            0 -1 623 -6.2532443553209305e-03</internalNodes>
          <leafValues>
            -8.7807178497314453e-01 1.4437296986579895e-01</leafValues></_>
        <_>
          <internalNodes>
            0 -1 167 3.6823725700378418e-01</internalNodes>
          <leafValues>
            -1.9932556152343750e-01 7.4836623668670654e-01</leafValues></_>
        <_>
          <internalNodes>
            0 -1 149 1.7329469323158264e-01</internalNodes>
          <leafValues>
            -1.6289542615413666e-01 6.0637843608856201e-01</leafValues></_>
        <_>
          <internalNodes>
            0 -1 95 5.2268137224018574e-03</internalNodes>
          <leafValues>
            1.2169839441776276e-01 -8.5792255401611328e-01</leafValues></_>
        <_>
          <internalNodes>
            0 -1 503 4.0251211612485349e-04</internalNodes>
          <leafValues>
            1.5243807435035706e-01 -5.8240246772766113e-01</leafValues></_>
        <_>
          <internalNodes>
            0 -1 606 8.3828680217266083e-03</internalNodes>
          <leafValues>
            -6.1748987436294556e-01 1.5953493118286133e-01</leafValues></_>
        <_>
          <internalNodes>
            0 -1 506 -8.4785267710685730e-02</internalNodes>
          <leafValues>
            5.6199610233306885e-01 -1.8747392296791077e-01</leafValues></_>
        <_>
          <internalNodes>
            0 -1 372 1.3542915694415569e-03</internalNodes>
          <leafValues>
            2.0603699982166290e-01 -5.8380615711212158e-01</leafValues></_>
        <_>
          <internalNodes>
            0 -1 330 3.4693384077399969e-04</internalNodes>
          <leafValues>
            1.3253727555274963e-01 -6.4177292585372925e-01</leafValues></_>
        <_>
          <internalNodes>
            0 -1 306 3.6914609372615814e-02</internalNodes>
          <leafValues>
            -1.6117598116397858e-01 5.6789284944534302e-01</leafValues></_>
        <_>
          <internalNodes>
            0 -1 476 4.6040769666433334e-03</internalNodes>
          <leafValues>
            -2.0642460882663727e-01 4.9042135477066040e-01</leafValues></_>
        <_>
          <internalNodes>
            0 -1 474 -2.0136164501309395e-02</internalNodes>
          <leafValues>
            -7.9684627056121826e-01 1.4223876595497131e-01</leafValues></_>
        <_>
          <internalNodes>
            0 -1 290 1.0549357160925865e-02</internalNodes>
          <leafValues>
            -2.7689054608345032e-01 2.5273543596267700e-01</leafValues></_>
        <_>
          <internalNodes>
            0 -1 153 -6.3848331570625305e-02</internalNodes>
          <leafValues>
            5.9866261482238770e-01 -1.6599278151988983e-01</leafValues></_>
        <_>
          <internalNodes>
            0 -1 330 -2.6827582041732967e-04</internalNodes>
          <leafValues>
            -6.1976772546768188e-01 1.7892593145370483e-01</leafValues></_>
        <_>
          <internalNodes>
            0 -1 351 -2.4273170530796051e-01</internalNodes>
          <leafValues>
            7.2470045089721680e-01 -1.3425318896770477e-01</leafValues></_></weakClassifiers></_>
    <!-- stage 8 -->
    <_>
      <maxWeakCount>25</maxWeakCount>
      <stageThreshold>-2.0701990127563477e+00</stageThreshold>
      <weakClassifiers>
        <_>
          <internalNodes>
            0 -1 158 4.7949320077896118e-01</internalNodes>
          <leafValues>
            -5.9221428632736206e-01 5.7605493068695068e-01</leafValues></_>
        <_>
          <internalNodes>
            0 -1 483 2.0134677179157734e-03</internalNodes>
          <leafValues>
            -4.5546248555183411e-01 3.4366610646247864e-01</leafValues></_>
        <_>
          <internalNodes>
            0 -1 203 7.3437854647636414e-02</internalNodes>
          <leafValues>
            -4.5941999554634094e-01 3.0345365405082703e-01</leafValues></_>
        <_>
          <internalNodes>
            0 -1 336 7.5841974467039108e-03</internalNodes>
          <leafValues>
            1.1308293044567108e-01 -8.2036757469177246e-01</leafValues></_>
        <_>
          <internalNodes>
            0 -1 420 2.0454814657568932e-03</internalNodes>
          <leafValues>
            -4.4465938210487366e-01 2.2825691103935242e-01</leafValues></_>
        <_>
          <internalNodes>
            0 -1 89 1.1841598898172379e-02</internalNodes>
          <leafValues>
            1.3612201809883118e-01 -7.8527003526687622e-01</leafValues></_>
        <_>
          <internalNodes>
            0 -1 519 -1.0051358258351684e-03</internalNodes>
          <leafValues>
            -3.5284647345542908e-01 2.2020272910594940e-01</leafValues></_>
        <_>
          <internalNodes>
            0 -1 302 -7.9604931175708771e-02</internalNodes>
          <leafValues>
            5.7972681522369385e-01 -2.1267303824424744e-01</leafValues></_>
        <_>
          <internalNodes>
            0 -1 214 -2.1041143685579300e-02</internalNodes>
          <leafValues>
            1.7231887578964233e-01 -7.3947268724441528e-01</leafValues></_>
        <_>
          <internalNodes>
            0 -1 469 -1.3744006864726543e-03</internalNodes>
          <leafValues>
            -2.7153423428535461e-01 3.1798329949378967e-01</leafValues></_>
        <_>
          <internalNodes>
            0 -1 403 2.6278125587850809e-03</internalNodes>
          <leafValues>
            -2.8241539001464844e-01 2.9202929139137268e-01</leafValues></_>
        <_>
          <internalNodes>
            0 -1 227 9.3331366777420044e-02</internalNodes>
          <leafValues>
            1.2942658364772797e-01 -8.6281430721282959e-01</leafValues></_>
        <_>
          <internalNodes>
            0 -1 378 3.7275063805282116e-03</internalNodes>
          <leafValues>
            -4.3430966138839722e-01 1.6048537194728851e-01</leafValues></_>
        <_>
          <internalNodes>
            0 -1 137 -7.3736701160669327e-03</internalNodes>
          <leafValues>
            -8.9777112007141113e-01 9.0137019753456116e-02</leafValues></_>
        <_>
          <internalNodes>
            0 -1 495 5.1666505634784698e-02</internalNodes>
          <leafValues>
            -2.0921416580677032e-01 4.8339319229125977e-01</leafValues></_>
        <_>
          <internalNodes>
            0 -1 421 6.5866933437064290e-04</internalNodes>
          <leafValues>
            -3.5892090201377869e-01 2.9654306173324585e-01</leafValues></_>
        <_>
          <internalNodes>
            0 -1 335 2.1799046080559492e-03</internalNodes>
          <leafValues>
            8.8229335844516754e-02 -7.8643530607223511e-01</leafValues></_>
        <_>
          <internalNodes>
            0 -1 236 -7.1744709275662899e-03</internalNodes>
          <leafValues>
            -8.1690734624862671e-01 6.6261105239391327e-02</leafValues></_>
        <_>
          <internalNodes>
            0 -1 143 5.8351773768663406e-02</internalNodes>
          <leafValues>
            -1.3551066815853119e-01 6.2691485881805420e-01</leafValues></_>
        <_>
          <internalNodes>
            0 -1 499 3.3397143706679344e-03</internalNodes>
          <leafValues>
            -2.7475586533546448e-01 2.9622036218643188e-01</leafValues></_>
        <_>
          <internalNodes>
            0 -1 90 1.9895795732736588e-02</internalNodes>
          <leafValues>
            1.0068671405315399e-01 -6.3389706611633301e-01</leafValues></_>
        <_>
          <internalNodes>
            0 -1 159 8.1571623682975769e-02</internalNodes>
          <leafValues>
            8.6191162467002869e-02 -7.3025619983673096e-01</leafValues></_>
        <_>
          <internalNodes>
            0 -1 434 -8.2289765123277903e-04</internalNodes>
          <leafValues>
            -8.5033887624740601e-01 6.0874257236719131e-02</leafValues></_>
        <_>
          <internalNodes>
            0 -1 278 2.0306660234928131e-01</internalNodes>
          <leafValues>
            -1.0428036749362946e-01 7.7375191450119019e-01</leafValues></_>
        <_>
          <internalNodes>
            0 -1 425 -1.3186618685722351e-02</internalNodes>
          <leafValues>
            4.9825647473335266e-01 -1.3629509508609772e-01</leafValues></_></weakClassifiers></_>
    <!-- stage 9 -->
    <_>
      <maxWeakCount>28</maxWeakCount>
      <stageThreshold>-2.0400233268737793e+00</stageThreshold>
      <weakClassifiers>
        <_>
          <internalNodes>
            0 -1 165 6.9957315921783447e-01</internalNodes>
          <leafValues>
            -6.3284170627593994e-01 3.6363637447357178e-01</leafValues></_>
        <_>
          <internalNodes>
            0 -1 157 3.6002480983734131e-01</internalNodes>
          <leafValues>
            -2.3200398683547974e-01 6.3114535808563232e-01</leafValues></_>
        <_>
          <internalNodes>
            0 -1 481 6.0517843812704086e-03</internalNodes>
          <leafValues>
            -2.4928495287895203e-01 3.8144925236701965e-01</leafValues></_>
        <_>
          <internalNodes>
            0 -1 445 8.6826563347131014e-04</internalNodes>
          <leafValues>
            1.1067179590463638e-01 -7.3040020465850830e-01</leafValues></_>
        <_>
          <internalNodes>
            0 -1 576 3.9349519647657871e-04</internalNodes>
          <leafValues>
            -4.7730699181556702e-01 1.8042729794979095e-01</leafValues></_>
        <_>
          <internalNodes>
            0 -1 460 4.7048203647136688e-02</internalNodes>
          <leafValues>
            -1.9836084544658661e-01 4.6805596351623535e-01</leafValues></_>
        <_>
          <internalNodes>
            0 -1 147 4.4136226177215576e-02</internalNodes>
          <leafValues>
            -1.2986126542091370e-01 5.4255247116088867e-01</leafValues></_>
        <_>
          <internalNodes>
            0 -1 447 3.6954462528228760e-02</internalNodes>
          <leafValues>
            -2.5095516443252563e-01 3.3326631784439087e-01</leafValues></_>
        <_>
          <internalNodes>
            0 -1 413 -3.3355464693158865e-03</internalNodes>
          <leafValues>
            -6.3671582937240601e-01 1.1697862297296524e-01</leafValues></_>
        <_>
          <internalNodes>
            0 -1 370 3.1924661016091704e-05</internalNodes>
          <leafValues>
            -4.4185334444046021e-01 1.8364545702934265e-01</leafValues></_>
        <_>
          <internalNodes>
            0 -1 91 1.5619827434420586e-02</internalNodes>
          <leafValues>
            1.4283238351345062e-01 -5.5848270654678345e-01</leafValues></_>
        <_>
          <internalNodes>
            0 -1 322 -1.1462285183370113e-02</internalNodes>
          <leafValues>
            -7.9807722568511963e-01 9.0024784207344055e-02</leafValues></_>
        <_>
          <internalNodes>
            0 -1 368 2.5845374912023544e-03</internalNodes>
          <leafValues>
            1.0216660052537918e-01 -5.9665387868881226e-01</leafValues></_>
        <_>
          <internalNodes>
            0 -1 341 -1.0095514357089996e-02</internalNodes>
          <leafValues>
            -8.4821701049804688e-01 7.4927754700183868e-02</leafValues></_>
        <_>
          <internalNodes>
            0 -1 488 1.0148851288249716e-04</internalNodes>
          <leafValues>
            -2.9698544740676880e-01 2.2103199362754822e-01</leafValues></_>
        <_>
          <internalNodes>
            0 -1 205 5.1186114549636841e-02</internalNodes>
          <leafValues>
            8.0711066722869873e-02 -8.5334545373916626e-01</leafValues></_>
        <_>
          <internalNodes>
            0 -1 390 7.7095152810215950e-03</internalNodes>
          <leafValues>
            -1.6351963579654694e-01 4.6358340978622437e-01</leafValues></_>
        <_>
          <internalNodes>
            0 -1 616 -3.9814083720557392e-05</internalNodes>
          <leafValues>
            2.3773151636123657e-01 -2.6200991868972778e-01</leafValues></_>
        <_>
          <internalNodes>
            0 -1 614 -2.6358982548117638e-02</internalNodes>
          <leafValues>
            -9.2760056257247925e-01 6.5231300890445709e-02</leafValues></_>
        <_>
          <internalNodes>
            0 -1 516 -1.3278956757858396e-03</internalNodes>
          <leafValues>
            -4.0112161636352539e-01 1.3833747804164886e-01</leafValues></_>
        <_>
          <internalNodes>
            0 -1 439 -1.3651834428310394e-01</internalNodes>
          <leafValues>
            8.5946244001388550e-01 -8.8611483573913574e-02</leafValues></_>
        <_>
          <internalNodes>
            0 -1 657 -3.2040483783930540e-03</internalNodes>
          <leafValues>
            -4.7125637531280518e-01 1.3938252627849579e-01</leafValues></_>
        <_>
          <internalNodes>
            0 -1 571 7.1860738098621368e-03</internalNodes>
          <leafValues>
            -1.5842278301715851e-01 4.1791766881942749e-01</leafValues></_>
        <_>
          <internalNodes>
            0 -1 197 6.6974252462387085e-02</internalNodes>
          <leafValues>
            -1.5367040038108826e-01 4.3164303898811340e-01</leafValues></_>
        <_>
          <internalNodes>
            0 -1 547 2.7516478439792991e-04</internalNodes>
          <leafValues>
            -3.5289573669433594e-01 1.7989963293075562e-01</leafValues></_>
        <_>
          <internalNodes>
            0 -1 93 6.0018990188837051e-04</internalNodes>
          <leafValues>
            9.0104386210441589e-02 -7.1604126691818237e-01</leafValues></_>
        <_>
          <internalNodes>
            0 -1 340 4.7120344825088978e-03</internalNodes>
          <leafValues>
            1.1371225118637085e-01 -4.7638651728630066e-01</leafValues></_>
        <_>
          <internalNodes>
            0 -1 18 -1.2681199237704277e-02</internalNodes>
          <leafValues>
            -7.3920923471450806e-01 7.2673991322517395e-02</leafValues></_></weakClassifiers></_>
    <!-- stage 10 -->
    <_>
      <maxWeakCount>38</maxWeakCount>
      <stageThreshold>-2.0065939426422119e+00</stageThreshold>
      <weakClassifiers>
        <_>
          <internalNodes>
            0 -1 243 3.9536982774734497e-01</internalNodes>
          <leafValues>
            -7.0080375671386719e-01 2.3857566714286804e-01</leafValues></_>
        <_>
          <internalNodes>
            0 -1 107 3.9462596178054810e-02</internalNodes>
          <leafValues>
            -3.7174335122108459e-01 4.1830560564994812e-01</leafValues></_>
        <_>
          <internalNodes>
            0 -1 402 -3.2017534249462187e-04</internalNodes>
          <leafValues>
            2.4519659578800201e-01 -3.5727244615554810e-01</leafValues></_>
        <_>
          <internalNodes>
            0 -1 339 -1.2792376801371574e-03</internalNodes>
          <leafValues>
            -6.5387338399887085e-01 1.2534262239933014e-01</leafValues></_>
        <_>
          <internalNodes>
            0 -1 580 3.0529253184795380e-02</internalNodes>
          <leafValues>
            -2.0274415612220764e-01 4.0184944868087769e-01</leafValues></_>
        <_>
          <internalNodes>
            0 -1 271 -4.0224217809736729e-03</internalNodes>
          <leafValues>
            -7.4792951345443726e-01 9.6121862530708313e-02</leafValues></_>
        <_>
          <internalNodes>
            0 -1 354 6.0757025494240224e-05</internalNodes>
          <leafValues>
            -4.6865683794021606e-01 1.3351543247699738e-01</leafValues></_>
        <_>
          <internalNodes>
            0 -1 193 8.0911768600344658e-03</internalNodes>
          <leafValues>
            1.0491967946290970e-01 -7.3854851722717285e-01</leafValues></_>
        <_>
          <internalNodes>
            0 -1 492 5.8312732726335526e-03</internalNodes>
          <leafValues>
            -2.0398470759391785e-01 4.1279524564743042e-01</leafValues></_>
        <_>
          <internalNodes>
            0 -1 438 7.3780526872724295e-04</internalNodes>
          <leafValues>
            1.2918585538864136e-01 -6.7735046148300171e-01</leafValues></_>
        <_>
          <internalNodes>
            0 -1 197 1.0574051737785339e-01</internalNodes>
          <leafValues>
            -1.3234637677669525e-01 6.0824066400527954e-01</leafValues></_>
        <_>
          <internalNodes>
            0 -1 441 3.4526729723438621e-04</internalNodes>
          <leafValues>
            -3.5128787159919739e-01 1.9765922427177429e-01</leafValues></_>
        <_>
          <internalNodes>
            0 -1 79 6.2348595820367336e-03</internalNodes>
          <leafValues>
            -2.0812283456325531e-01 3.4034863114356995e-01</leafValues></_>
        <_>
          <internalNodes>
            0 -1 255 3.0461560934782028e-02</internalNodes>
          <leafValues>
            -1.6824148595333099e-01 4.5174551010131836e-01</leafValues></_>
        <_>
          <internalNodes>
            0 -1 575 4.5746192336082458e-02</internalNodes>
          <leafValues>
            -2.6076248288154602e-01 3.0200204253196716e-01</leafValues></_>
        <_>
          <internalNodes>
            0 -1 453 -5.5739749222993851e-04</internalNodes>
          <leafValues>
            -5.2774101495742798e-01 1.2450186163187027e-01</leafValues></_>
        <_>
          <internalNodes>
            0 -1 327 7.7803567983210087e-03</internalNodes>
          <leafValues>
            4.9526266753673553e-02 -8.6297529935836792e-01</leafValues></_>
        <_>
          <internalNodes>
            0 -1 493 6.1614578589797020e-04</internalNodes>
          <leafValues>
            7.9690605401992798e-02 -5.5687493085861206e-01</leafValues></_>
        <_>
          <internalNodes>
            0 -1 103 2.2077510133385658e-02</internalNodes>
          <leafValues>
            -1.2620741128921509e-01 4.1251972317695618e-01</leafValues></_>
        <_>
          <internalNodes>
            0 -1 101 5.9796765446662903e-02</internalNodes>
          <leafValues>
            5.3963880985975266e-02 -9.5252871513366699e-01</leafValues></_>
        <_>
          <internalNodes>
            0 -1 35 -4.1722762398421764e-04</internalNodes>
          <leafValues>
            -5.1263272762298584e-01 7.3889285326004028e-02</leafValues></_>
        <_>
          <internalNodes>
            0 -1 27 5.2248341962695122e-03</internalNodes>
          <leafValues>
            1.0837476700544357e-01 -4.7509741783142090e-01</leafValues></_>
        <_>
          <internalNodes>
            0 -1 11 9.2399204149842262e-03</internalNodes>
          <leafValues>
            -3.1073629856109619e-01 1.4647899568080902e-01</leafValues></_>
        <_>
          <internalNodes>
            0 -1 86 7.6438835822045803e-03</internalNodes>
          <leafValues>
            9.8708525300025940e-02 -4.4849258661270142e-01</leafValues></_>
        <_>
          <internalNodes>
            0 -1 406 1.0912381112575531e-03</internalNodes>
          <leafValues>
            -1.6104382276535034e-01 3.0977249145507812e-01</leafValues></_>
        <_>
          <internalNodes>
            0 -1 639 1.2023586314171553e-03</internalNodes>
          <leafValues>
            1.0602353513240814e-01 -5.0563412904739380e-01</leafValues></_>
        <_>
          <internalNodes>
            0 -1 293 1.8351793289184570e-02</internalNodes>
          <leafValues>
            -1.4395287632942200e-01 3.2110303640365601e-01</leafValues></_>
        <_>
          <internalNodes>
            0 -1 309 -2.9083085246384144e-03</internalNodes>
          <leafValues>
            3.0655187368392944e-01 -1.6050104796886444e-01</leafValues></_>
        <_>
          <internalNodes>
            0 -1 521 -7.8055093763396144e-04</internalNodes>
          <leafValues>
            -2.5472575426101685e-01 1.9948628544807434e-01</leafValues></_>
        <_>
          <internalNodes>
            0 -1 385 -4.0612861514091492e-02</internalNodes>
          <leafValues>
            -8.0908542871475220e-01 5.9063944965600967e-02</leafValues></_>
        <_>
          <internalNodes>
            0 -1 565 -1.2303637340664864e-03</internalNodes>
          <leafValues>
            3.1519988179206848e-01 -1.6650016605854034e-01</leafValues></_>
        <_>
          <internalNodes>
            0 -1 585 4.5197259169071913e-04</internalNodes>
          <leafValues>
            -2.3434682190418243e-01 2.0124918222427368e-01</leafValues></_>
        <_>
          <internalNodes>
            0 -1 397 7.5719527900218964e-02</internalNodes>
          <leafValues>
            5.2276547998189926e-02 -8.5345691442489624e-01</leafValues></_>
        <_>
          <internalNodes>
            0 -1 228 -1.8729422008618712e-03</internalNodes>
          <leafValues>
            2.8142082691192627e-01 -1.8170173466205597e-01</leafValues></_>
        <_>
          <internalNodes>
            0 -1 437 -3.6334528704173863e-04</internalNodes>
          <leafValues>
            -4.6570944786071777e-01 1.0702392458915710e-01</leafValues></_>
        <_>
          <internalNodes>
            0 -1 274 -1.7336723394691944e-03</internalNodes>
          <leafValues>
            4.1475096344947815e-01 -1.1631870269775391e-01</leafValues></_>
        <_>
          <internalNodes>
            0 -1 3 -1.2279896764084697e-03</internalNodes>
          <leafValues>
            2.1332007646560669e-01 -2.2240230441093445e-01</leafValues></_>
        <_>
          <internalNodes>
            0 -1 102 6.4486160874366760e-02</internalNodes>
          <leafValues>
            -1.1413384974002838e-01 3.8351461291313171e-01</leafValues></_></weakClassifiers></_>
    <!-- stage 11 -->
    <_>
      <maxWeakCount>36</maxWeakCount>
      <stageThreshold>-1.8951984643936157e+00</stageThreshold>
      <weakClassifiers>
        <_>
          <internalNodes>
            0 -1 152 4.3144360184669495e-01</internalNodes>
          <leafValues>
            -4.7496569156646729e-01 6.2437278032302856e-01</leafValues></_>
        <_>
          <internalNodes>
            0 -1 284 2.2567783296108246e-01</internalNodes>
          <leafValues>
            -3.6718538403511047e-01 3.4362339973449707e-01</leafValues></_>
        <_>
          <internalNodes>
            0 -1 324 1.1166883632540703e-03</internalNodes>
          <leafValues>
            -3.3814132213592529e-01 2.3266386985778809e-01</leafValues></_>
        <_>
          <internalNodes>
            0 -1 12 5.6575977802276611e-01</internalNodes>
          <leafValues>
            -1.8081645667552948e-01 5.1178276538848877e-01</leafValues></_>
        <_>
          <internalNodes>
            0 -1 416 -3.0545360641553998e-04</internalNodes>
          <leafValues>
            -6.1813998222351074e-01 1.4631873369216919e-01</leafValues></_>
        <_>
          <internalNodes>
            0 -1 416 2.9419141355901957e-04</internalNodes>
          <leafValues>
            1.4025045931339264e-01 -5.9699553251266479e-01</leafValues></_>
        <_>
          <internalNodes>
            0 -1 379 -7.4440548196434975e-03</internalNodes>
          <leafValues>
            3.1914567947387695e-01 -2.2605252265930176e-01</leafValues></_>
        <_>
          <internalNodes>
            0 -1 45 2.6041325181722641e-03</internalNodes>
          <leafValues>
            -5.8796560764312744e-01 1.6201896965503693e-01</leafValues></_>
        <_>
          <internalNodes>
            0 -1 139 8.3974320441484451e-03</internalNodes>
          <leafValues>
            7.2447501122951508e-02 -8.2867944240570068e-01</leafValues></_>
        <_>
          <internalNodes>
            0 -1 235 -3.1060357578098774e-03</internalNodes>
          <leafValues>
            -5.6524026393890381e-01 8.8397249579429626e-02</leafValues></_>
        <_>
          <internalNodes>
            0 -1 515 8.6558534530922771e-04</internalNodes>
          <leafValues>
            -3.1995600461959839e-01 2.0477986335754395e-01</leafValues></_>
        <_>
          <internalNodes>
            0 -1 8 5.3664302825927734e-01</internalNodes>
          <leafValues>
            -1.1753060668706894e-01 7.2674626111984253e-01</leafValues></_>
        <_>
          <internalNodes>
            0 -1 171 -1.1300472397124395e-04</internalNodes>
          <leafValues>
            2.9980218410491943e-01 -1.7929306626319885e-01</leafValues></_>
        <_>
          <internalNodes>
            0 -1 130 3.4011572599411011e-02</internalNodes>
          <leafValues>
            -1.1032135039567947e-01 5.3687000274658203e-01</leafValues></_>
        <_>
          <internalNodes>
            0 -1 257 -2.3408085107803345e-02</internalNodes>
          <leafValues>
            -7.8837937116622925e-01 9.9160633981227875e-02</leafValues></_>
        <_>
          <internalNodes>
            0 -1 77 -8.8296964764595032e-02</internalNodes>
          <leafValues>
            -8.6009603738784790e-01 3.3966761082410812e-02</leafValues></_>
        <_>
          <internalNodes>
            0 -1 258 2.6041024830192327e-03</internalNodes>
          <leafValues>
            -1.8992358446121216e-01 2.8209203481674194e-01</leafValues></_>
        <_>
          <internalNodes>
            0 -1 349 -8.0434401752427220e-04</internalNodes>
          <leafValues>
            -5.7919323444366455e-01 8.1990547478199005e-02</leafValues></_>
        <_>
          <internalNodes>
            0 -1 461 6.4453488448634744e-05</internalNodes>
          <leafValues>
            -4.3158498406410217e-01 9.5940865576267242e-02</leafValues></_>
        <_>
          <internalNodes>
            0 -1 556 1.5022599836811423e-03</internalNodes>
          <leafValues>
            -1.5323877334594727e-01 3.1031638383865356e-01</leafValues></_>
        <_>
          <internalNodes>
            0 -1 289 -4.2580410838127136e-02</internalNodes>
          <leafValues>
            2.6816993951797485e-01 -1.9932846724987030e-01</leafValues></_>
        <_>
          <internalNodes>
            0 -1 31 9.2299561947584152e-04</internalNodes>
          <leafValues>
            2.1049587428569794e-01 -2.4564771354198456e-01</leafValues></_>
        <_>
          <internalNodes>
            0 -1 615 -4.5413151383399963e-04</internalNodes>
          <leafValues>
            2.2606308758258820e-01 -2.0590123534202576e-01</leafValues></_>
        <_>
          <internalNodes>
            0 -1 519 -1.0249270126223564e-03</internalNodes>
          <leafValues>
            -2.5970423221588135e-01 2.0399472117424011e-01</leafValues></_>
        <_>
          <internalNodes>
            0 -1 514 -6.1540659517049789e-02</internalNodes>
          <leafValues>
            6.1383062601089478e-01 -9.1988719999790192e-02</leafValues></_>
        <_>
          <internalNodes>
            0 -1 662 -3.3735364675521851e-02</internalNodes>
          <leafValues>
            -8.5710477828979492e-01 7.3502734303474426e-02</leafValues></_>
        <_>
          <internalNodes>
            0 -1 344 4.5001044054515660e-04</internalNodes>
          <leafValues>
            7.2963632643222809e-02 -5.0382637977600098e-01</leafValues></_>
        <_>
          <internalNodes>
            0 -1 210 -1.9614592194557190e-02</internalNodes>
          <leafValues>
            5.5483236908912659e-02 -6.8296068906784058e-01</leafValues></_>
        <_>
          <internalNodes>
            0 -1 546 1.1504467111080885e-03</internalNodes>
          <leafValues>
            -2.3491756618022919e-01 1.7627014219760895e-01</leafValues></_>
        <_>
          <internalNodes>
            0 -1 277 -6.4292967319488525e-02</internalNodes>
          <leafValues>
            5.2799934148788452e-01 -7.8653767704963684e-02</leafValues></_>
        <_>
          <internalNodes>
            0 -1 542 -2.3952111951075494e-04</internalNodes>
          <leafValues>
            -4.9604251980781555e-01 8.9819408953189850e-02</leafValues></_>
        <_>
          <internalNodes>
            0 -1 25 2.3410581052303314e-03</internalNodes>
          <leafValues>
            1.1409240961074829e-01 -3.5544317960739136e-01</leafValues></_>
        <_>
          <internalNodes>
            0 -1 48 -1.6438078600913286e-03</internalNodes>
          <leafValues>
            -4.5476341247558594e-01 8.5478685796260834e-02</leafValues></_>
        <_>
          <internalNodes>
            0 -1 532 -5.6174984201788902e-03</internalNodes>
          <leafValues>
            -8.8561987876892090e-01 3.6726161837577820e-02</leafValues></_>
        <_>
          <internalNodes>
            0 -1 273 8.5948091000318527e-03</internalNodes>
          <leafValues>
            -1.7017740011215210e-01 2.2236016392707825e-01</leafValues></_>
        <_>
          <internalNodes>
            0 -1 216 -7.6669482514262199e-03</internalNodes>
          <leafValues>
            4.1423445940017700e-01 -1.0893110185861588e-01</leafValues></_></weakClassifiers></_>
    <!-- stage 12 -->
    <_>
      <maxWeakCount>43</maxWeakCount>
      <stageThreshold>-1.9740821123123169e+00</stageThreshold>
      <weakClassifiers>
        <_>
          <internalNodes>
            0 -1 155 7.3760408163070679e-01</internalNodes>
          <leafValues>
            -5.6535154581069946e-01 2.4758364260196686e-01</leafValues></_>
        <_>
          <internalNodes>
            0 -1 408 3.2331729307770729e-03</internalNodes>
          <leafValues>
            -3.8046982884407043e-01 2.7344074845314026e-01</leafValues></_>
        <_>
          <internalNodes>
            0 -1 101 7.4623068794608116e-03</internalNodes>
          <leafValues>
            -2.9682281613349915e-01 2.7734342217445374e-01</leafValues></_>
        <_>
          <internalNodes>
            0 -1 605 1.0864328593015671e-02</internalNodes>
          <leafValues>
            -5.2053052186965942e-01 1.2066385149955750e-01</leafValues></_>
        <_>
          <internalNodes>
            0 -1 432 6.0857189819216728e-03</internalNodes>
          <leafValues>
            2.3475386202335358e-01 -3.7767547369003296e-01</leafValues></_>
        <_>
          <internalNodes>
            0 -1 328 -3.4179207868874073e-03</internalNodes>
          <leafValues>
            -7.1388828754425049e-01 1.1357834190130234e-01</leafValues></_>
        <_>
          <internalNodes>
            0 -1 502 -6.4786849543452263e-04</internalNodes>
          <leafValues>
            -6.8629586696624756e-01 8.3116844296455383e-02</leafValues></_>
        <_>
          <internalNodes>
            0 -1 661 -1.6938002081587911e-03</internalNodes>
          <leafValues>
            -7.3233324289321899e-01 3.8368675857782364e-02</leafValues></_>
        <_>
          <internalNodes>
            0 -1 76 -1.5616717282682657e-03</internalNodes>
          <leafValues>
            1.8228717148303986e-01 -3.3043146133422852e-01</leafValues></_>
        <_>
          <internalNodes>
            0 -1 97 3.1956937164068222e-03</internalNodes>
          <leafValues>
            9.4333060085773468e-02 -4.9838373064994812e-01</leafValues></_>
        <_>
          <internalNodes>
            0 -1 395 6.3388445414602757e-03</internalNodes>
          <leafValues>
            -1.9766281545162201e-01 2.8983521461486816e-01</leafValues></_>
        <_>
          <internalNodes>
            0 -1 382 -5.9989348053932190e-02</internalNodes>
          <leafValues>
            -8.0513769388198853e-01 1.1360202729701996e-01</leafValues></_>
        <_>
          <internalNodes>
            0 -1 315 -1.0400310158729553e-02</internalNodes>
          <leafValues>
            -6.1275035142898560e-01 5.2995432168245316e-02</leafValues></_>
        <_>
          <internalNodes>
            0 -1 590 -2.7673320844769478e-02</internalNodes>
          <leafValues>
            3.0312645435333252e-01 -1.7390556633472443e-01</leafValues></_>
        <_>
          <internalNodes>
            0 -1 352 -1.1231399327516556e-01</internalNodes>
          <leafValues>
            4.0021643042564392e-01 -1.2990584969520569e-01</leafValues></_>
        <_>
          <internalNodes>
            0 -1 387 2.1488055586814880e-02</internalNodes>
          <leafValues>
            -1.2364695966243744e-01 4.2654776573181152e-01</leafValues></_>
        <_>
          <internalNodes>
            0 -1 462 3.7429701536893845e-02</internalNodes>
          <leafValues>
            -7.9873211681842804e-02 4.3675741553306580e-01</leafValues></_>
        <_>
          <internalNodes>
            0 -1 450 4.6624281094409525e-04</internalNodes>
          <leafValues>
            -2.7698644995689392e-01 1.6681970655918121e-01</leafValues></_>
        <_>
          <internalNodes>
            0 -1 145 5.8255903422832489e-02</internalNodes>
          <leafValues>
            -1.0928453505039215e-01 4.3276005983352661e-01</leafValues></_>
        <_>
          <internalNodes>
            0 -1 15 -3.1893327832221985e-03</internalNodes>
          <leafValues>
            -3.1370291113853455e-01 1.4991149306297302e-01</leafValues></_>
        <_>
          <internalNodes>
            0 -1 126 -1.2334365397691727e-01</internalNodes>
          <leafValues>
            3.9624777436256409e-01 -1.3075518608093262e-01</leafValues></_>
        <_>
          <internalNodes>
            0 -1 41 -4.1647866368293762e-02</internalNodes>
          <leafValues>
            -6.9305247068405151e-01 7.7682077884674072e-02</leafValues></_>
        <_>
          <internalNodes>
            0 -1 491 1.8144302070140839e-02</internalNodes>
          <leafValues>
            -1.7565372586250305e-01 2.4931587278842926e-01</leafValues></_>
        <_>
          <internalNodes>
            0 -1 649 7.4777840636670589e-03</internalNodes>
          <leafValues>
            8.5004538297653198e-02 -4.3501150608062744e-01</leafValues></_>
        <_>
          <internalNodes>
            0 -1 303 2.3927800357341766e-03</internalNodes>
          <leafValues>
            -2.0090320706367493e-01 2.2185720503330231e-01</leafValues></_>
        <_>
          <internalNodes>
            0 -1 204 2.3638438433408737e-02</internalNodes>
          <leafValues>
            7.2089016437530518e-02 -6.5973740816116333e-01</leafValues></_>
        <_>
          <internalNodes>
            0 -1 393 -2.7893099468201399e-03</internalNodes>
          <leafValues>
            2.6529720425605774e-01 -1.8085883557796478e-01</leafValues></_>
        <_>
          <internalNodes>
            0 -1 131 8.3275869488716125e-02</internalNodes>
          <leafValues>
            5.0200939178466797e-02 -8.3340162038803101e-01</leafValues></_>
        <_>
          <internalNodes>
            0 -1 182 -3.2525532878935337e-03</internalNodes>
          <leafValues>
            2.3840716481208801e-01 -1.8105082213878632e-01</leafValues></_>
        <_>
          <internalNodes>
            0 -1 319 -4.8646982759237289e-04</internalNodes>
          <leafValues>
            2.2424274682998657e-01 -1.6823343932628632e-01</leafValues></_>
        <_>
          <internalNodes>
            0 -1 495 6.7635633051395416e-02</internalNodes>
          <leafValues>
            -1.0260676592588425e-01 3.7646892666816711e-01</leafValues></_>
        <_>
          <internalNodes>
            0 -1 607 -1.3874351978302002e-02</internalNodes>
          <leafValues>
            -2.7140131592750549e-01 1.6691273450851440e-01</leafValues></_>
        <_>
          <internalNodes>
            0 -1 582 2.9184655286371708e-03</internalNodes>
          <leafValues>
            -1.1499402672052383e-01 3.4137755632400513e-01</leafValues></_>
        <_>
          <internalNodes>
            0 -1 357 2.8786348411813378e-04</internalNodes>
          <leafValues>
            -3.7235212326049805e-01 1.1686079949140549e-01</leafValues></_>
        <_>
          <internalNodes>
            0 -1 566 -5.2120257169008255e-03</internalNodes>
          <leafValues>
            -8.0976676940917969e-01 3.9126146584749222e-02</leafValues></_>
        <_>
          <internalNodes>
            0 -1 637 -6.6147295001428574e-05</internalNodes>
          <leafValues>
            1.5580421686172485e-01 -2.4330125749111176e-01</leafValues></_>
        <_>
          <internalNodes>
            0 -1 443 -1.4826601836830378e-03</internalNodes>
          <leafValues>
            -4.9711820483207703e-01 7.6194956898689270e-02</leafValues></_>
        <_>
          <internalNodes>
            0 -1 521 -6.2408170197159052e-04</internalNodes>
          <leafValues>
            -2.0613421499729156e-01 1.6477842628955841e-01</leafValues></_>
        <_>
          <internalNodes>
            0 -1 247 -2.0189343020319939e-02</internalNodes>
          <leafValues>
            5.8659542351961136e-02 -7.3844683170318604e-01</leafValues></_>
        <_>
          <internalNodes>
            0 -1 634 -2.7657244354486465e-03</internalNodes>
          <leafValues>
            2.3509450256824493e-01 -1.5911643207073212e-01</leafValues></_>
        <_>
          <internalNodes>
            0 -1 263 -1.1156344413757324e-01</internalNodes>
          <leafValues>
            -8.2523149251937866e-01 4.3027430772781372e-02</leafValues></_>
        <_>
          <internalNodes>
            0 -1 154 -9.2933796346187592e-02</internalNodes>
          <leafValues>
            3.7994468212127686e-01 -9.4728417694568634e-02</leafValues></_>
        <_>
          <internalNodes>
            0 -1 237 1.5323454514145851e-02</internalNodes>
          <leafValues>
            -2.3410804569721222e-01 1.8913196027278900e-01</leafValues></_></weakClassifiers></_>
    <!-- stage 13 -->
    <_>
      <maxWeakCount>52</maxWeakCount>
      <stageThreshold>-1.9150173664093018e+00</stageThreshold>
      <weakClassifiers>
        <_>
          <internalNodes>
            0 -1 54 -2.5593119859695435e-01</internalNodes>
          <leafValues>
            3.5623678565025330e-01 -4.8228678107261658e-01</leafValues></_>
        <_>
          <internalNodes>
            0 -1 588 6.4925760030746460e-02</internalNodes>
          <leafValues>
            -3.3746585249900818e-01 2.5665798783302307e-01</leafValues></_>
        <_>
          <internalNodes>
            0 -1 174 2.8866674983873963e-04</internalNodes>
          <leafValues>
            1.5150251984596252e-01 -3.5762262344360352e-01</leafValues></_>
        <_>
          <internalNodes>
            0 -1 368 1.6808869550004601e-03</internalNodes>
          <leafValues>
            1.0594277828931808e-01 -4.4605451822280884e-01</leafValues></_>
        <_>
          <internalNodes>
            0 -1 267 1.2760698795318604e-02</internalNodes>
          <leafValues>
            1.2159952521324158e-01 -5.5088269710540771e-01</leafValues></_>
        <_>
          <internalNodes>
            0 -1 99 -6.7015876993536949e-03</internalNodes>
          <leafValues>
            -4.8210561275482178e-01 1.1991589516401291e-01</leafValues></_>
        <_>
          <internalNodes>
            0 -1 504 3.7090643309056759e-04</internalNodes>
          <leafValues>
            -5.0246006250381470e-01 9.1289646923542023e-02</leafValues></_>
        <_>
          <internalNodes>
            0 -1 113 4.7754850238561630e-02</internalNodes>
          <leafValues>
            5.8575991541147232e-02 -8.9923173189163208e-01</leafValues></_>
        <_>
          <internalNodes>
            0 -1 358 4.2312924051657319e-04</internalNodes>
          <leafValues>
            -2.9500564932823181e-01 1.4677545428276062e-01</leafValues></_>
        <_>
          <internalNodes>
            0 -1 88 4.5271962881088257e-03</internalNodes>
          <leafValues>
            7.2524622082710266e-02 -5.1535767316818237e-01</leafValues></_>
        <_>
          <internalNodes>
            0 -1 468 -5.6183582637459040e-04</internalNodes>
          <leafValues>
            -1.8583753705024719e-01 2.6386976242065430e-01</leafValues></_>
        <_>
          <internalNodes>
            0 -1 619 -8.9399830903857946e-04</internalNodes>
          <leafValues>
            2.1660284698009491e-01 -2.1526013314723969e-01</leafValues></_>
        <_>
          <internalNodes>
            0 -1 429 6.7242309451103210e-02</internalNodes>
          <leafValues>
            -1.9498087465763092e-01 2.7100610733032227e-01</leafValues></_>
        <_>
          <internalNodes>
            0 -1 173 2.7904666960239410e-02</internalNodes>
          <leafValues>
            -1.4247217774391174e-01 3.0250746011734009e-01</leafValues></_>
        <_>
          <internalNodes>
            0 -1 222 -2.1032101940363646e-03</internalNodes>
          <leafValues>
            3.1402400135993958e-01 -1.5407879650592804e-01</leafValues></_>
        <_>
          <internalNodes>
            0 -1 355 4.0598286432214081e-04</internalNodes>
          <leafValues>
            1.0012473165988922e-01 -4.9997538328170776e-01</leafValues></_>
        <_>
          <internalNodes>
            0 -1 55 -2.1608191728591919e-01</internalNodes>
          <leafValues>
            -6.5188091993331909e-01 3.0569851398468018e-02</leafValues></_>
        <_>
          <internalNodes>
            0 -1 437 -6.7949685035273433e-04</internalNodes>
          <leafValues>
            -5.3708827495574951e-01 6.9036446511745453e-02</leafValues></_>
        <_>
          <internalNodes>
            0 -1 320 -1.3735432177782059e-02</internalNodes>
          <leafValues>
            -8.5308694839477539e-01 4.0569439530372620e-02</leafValues></_>
        <_>
          <internalNodes>
            0 -1 133 -1.3192335143685341e-02</internalNodes>
          <leafValues>
            -3.2080116868019104e-01 9.9801652133464813e-02</leafValues></_>
        <_>
          <internalNodes>
            0 -1 472 -8.0164481187239289e-04</internalNodes>
          <leafValues>
            -1.6770640015602112e-01 2.2787919640541077e-01</leafValues></_>
        <_>
          <internalNodes>
            0 -1 376 9.6222676802426577e-04</internalNodes>
          <leafValues>
            -3.6984708905220032e-01 1.2783777713775635e-01</leafValues></_>
        <_>
          <internalNodes>
            0 -1 286 -1.6655796766281128e-01</internalNodes>
          <leafValues>
            8.3067876100540161e-01 -5.5500999093055725e-02</leafValues></_>
        <_>
          <internalNodes>
            0 -1 416 -2.4493242381140590e-04</internalNodes>
          <leafValues>
            -4.7931393980979919e-01 9.2601247131824493e-02</leafValues></_>
        <_>
          <internalNodes>
            0 -1 593 3.3071781217586249e-05</internalNodes>
          <leafValues>
            -2.1175538003444672e-01 1.5290908515453339e-01</leafValues></_>
        <_>
          <internalNodes>
            0 -1 607 2.9820874333381653e-02</internalNodes>
          <leafValues>
            9.1892264783382416e-02 -4.8430112004280090e-01</leafValues></_>
        <_>
          <internalNodes>
            0 -1 103 2.4473115801811218e-02</internalNodes>
          <leafValues>
            -1.0449090600013733e-01 3.7883359193801880e-01</leafValues></_>
        <_>
          <internalNodes>
            0 -1 552 3.4461863106116652e-04</internalNodes>
          <leafValues>
            -2.2827517986297607e-01 1.8844094872474670e-01</leafValues></_>
        <_>
          <internalNodes>
            0 -1 334 6.4790976466611028e-04</internalNodes>
          <leafValues>
            8.7539441883563995e-02 -4.3708151578903198e-01</leafValues></_>
        <_>
          <internalNodes>
            0 -1 49 -1.2496144045144320e-03</internalNodes>
          <leafValues>
            -3.7263345718383789e-01 8.2889810204505920e-02</leafValues></_>
        <_>
          <internalNodes>
            0 -1 181 -1.5579694882035255e-03</internalNodes>
          <leafValues>
            2.2443988919258118e-01 -1.7123672366142273e-01</leafValues></_>
        <_>
          <internalNodes>
            0 -1 128 -3.5007059574127197e-02</internalNodes>
          <leafValues>
            -9.0540462732315063e-01 4.5486263930797577e-02</leafValues></_>
        <_>
          <internalNodes>
            0 -1 467 1.6712123760953546e-03</internalNodes>
          <leafValues>
            -1.9481053948402405e-01 1.8112729489803314e-01</leafValues></_>
        <_>
          <internalNodes>
            0 -1 456 2.3958940058946609e-02</internalNodes>
          <leafValues>
            -9.4492286443710327e-02 4.1639930009841919e-01</leafValues></_>
        <_>
          <internalNodes>
            0 -1 96 -1.9594188779592514e-02</internalNodes>
          <leafValues>
            -7.9691809415817261e-01 4.7693111002445221e-02</leafValues></_>
        <_>
          <internalNodes>
            0 -1 287 2.4703638628125191e-02</internalNodes>
          <leafValues>
            2.1661434322595596e-02 -9.4416534900665283e-01</leafValues></_>
        <_>
          <internalNodes>
            0 -1 662 -3.5207461565732956e-02</internalNodes>
          <leafValues>
            -9.2366611957550049e-01 2.3657962679862976e-02</leafValues></_>
        <_>
          <internalNodes>
            0 -1 313 2.5873584672808647e-03</internalNodes>
          <leafValues>
            -1.2956158816814423e-01 2.4197088181972504e-01</leafValues></_>
        <_>
          <internalNodes>
            0 -1 73 -3.7571467459201813e-02</internalNodes>
          <leafValues>
            -8.9010697603225708e-01 3.8342371582984924e-02</leafValues></_>
        <_>
          <internalNodes>
            0 -1 411 -9.4204384367913008e-04</internalNodes>
          <leafValues>
            2.2705419361591339e-01 -1.5159654617309570e-01</leafValues></_>
        <_>
          <internalNodes>
            0 -1 266 7.1986671537160873e-04</internalNodes>
          <leafValues>
            -2.0617508888244629e-01 1.4903575181961060e-01</leafValues></_>
        <_>
          <internalNodes>
            0 -1 250 1.7351403832435608e-02</internalNodes>
          <leafValues>
            -8.1253968179225922e-02 5.0783210992813110e-01</leafValues></_>
        <_>
          <internalNodes>
            0 -1 535 -4.9800281412899494e-03</internalNodes>
          <leafValues>
            -8.3123713731765747e-01 4.9137946218252182e-02</leafValues></_>
        <_>
          <internalNodes>
            0 -1 577 1.1588010936975479e-02</internalNodes>
          <leafValues>
            -8.8865138590335846e-02 4.0289503335952759e-01</leafValues></_>
        <_>
          <internalNodes>
            0 -1 20 -1.1322153359651566e-01</internalNodes>
          <leafValues>
            2.1994388103485107e-01 -1.3885392248630524e-01</leafValues></_>
        <_>
          <internalNodes>
            0 -1 584 -2.8039040043950081e-03</internalNodes>
          <leafValues>
            -3.1369182467460632e-01 1.0484274476766586e-01</leafValues></_>
        <_>
          <internalNodes>
            0 -1 415 2.2735985112376511e-04</internalNodes>
          <leafValues>
            -2.5386631488800049e-01 1.2577335536479950e-01</leafValues></_>
        <_>
          <internalNodes>
            0 -1 537 -4.6266196295619011e-03</internalNodes>
          <leafValues>
            -6.1223560571670532e-01 5.6372702121734619e-02</leafValues></_>
        <_>
          <internalNodes>
            0 -1 177 1.0269181802868843e-02</internalNodes>
          <leafValues>
            4.8015709966421127e-02 -6.4364194869995117e-01</leafValues></_>
        <_>
          <internalNodes>
            0 -1 239 -9.0257674455642700e-02</internalNodes>
          <leafValues>
            7.0454055070877075e-01 -5.2104786038398743e-02</leafValues></_>
        <_>
          <internalNodes>
            0 -1 245 7.4339425191283226e-04</internalNodes>
          <leafValues>
            1.9422358274459839e-01 -1.8660970032215118e-01</leafValues></_>
        <_>
          <internalNodes>
            0 -1 510 -4.1910456493496895e-03</internalNodes>
          <leafValues>
            9.7788169980049133e-02 -3.4649118781089783e-01</leafValues></_></weakClassifiers></_>
    <!-- stage 14 -->
    <_>
      <maxWeakCount>57</maxWeakCount>
      <stageThreshold>-1.9502754211425781e+00</stageThreshold>
      <weakClassifiers>
        <_>
          <internalNodes>
            0 -1 2 6.3909208402037621e-03</internalNodes>
          <leafValues>
            -6.2094181776046753e-01 5.8823529630899429e-02</leafValues></_>
        <_>
          <internalNodes>
            0 -1 253 2.0857769250869751e-01</internalNodes>
          <leafValues>
            -3.0666095018386841e-01 3.2614994049072266e-01</leafValues></_>
        <_>
          <internalNodes>
            0 -1 533 1.1752349091693759e-03</internalNodes>
          <leafValues>
            -2.4436333775520325e-01 2.5608077645301819e-01</leafValues></_>
        <_>
          <internalNodes>
            0 -1 329 3.1172359740594402e-05</internalNodes>
          <leafValues>
            -4.2658144235610962e-01 1.4545716345310211e-01</leafValues></_>
        <_>
          <internalNodes>
            0 -1 33 -6.5475535392761230e-01</internalNodes>
          <leafValues>
            5.2687066793441772e-01 -7.2933010756969452e-02</leafValues></_>
        <_>
          <internalNodes>
            0 -1 544 6.8458647001534700e-04</internalNodes>
          <leafValues>
            -3.1198546290397644e-01 1.4412146806716919e-01</leafValues></_>
        <_>
          <internalNodes>
            0 -1 198 9.9079862236976624e-02</internalNodes>
          <leafValues>
            -1.0995255410671234e-01 4.8207142949104309e-01</leafValues></_>
        <_>
          <internalNodes>
            0 -1 340 5.3544295951724052e-03</internalNodes>
          <leafValues>
            8.3161525428295135e-02 -5.4196202754974365e-01</leafValues></_>
        <_>
          <internalNodes>
            0 -1 232 7.7210683375597000e-03</internalNodes>
          <leafValues>
            7.3410727083683014e-02 -5.7849413156509399e-01</leafValues></_>
        <_>
          <internalNodes>
            0 -1 430 -3.4861383028328419e-03</internalNodes>
          <leafValues>
            -6.7108029127120972e-01 5.6948289275169373e-02</leafValues></_>
        <_>
          <internalNodes>
            0 -1 326 -3.4495729487389326e-03</internalNodes>
          <leafValues>
            -7.5296771526336670e-01 4.7869410365819931e-02</leafValues></_>
        <_>
          <internalNodes>
            0 -1 308 -4.4121053069829941e-03</internalNodes>
          <leafValues>
            -2.1639561653137207e-01 1.9467754662036896e-01</leafValues></_>
        <_>
          <internalNodes>
            0 -1 242 7.8428000211715698e-02</internalNodes>
          <leafValues>
            4.0194015949964523e-02 -8.6916381120681763e-01</leafValues></_>
        <_>
          <internalNodes>
            0 -1 498 1.9184444681741297e-04</internalNodes>
          <leafValues>
            -4.0657973289489746e-01 9.2302575707435608e-02</leafValues></_>
        <_>
          <internalNodes>
            0 -1 647 -8.1585524603724480e-03</internalNodes>
          <leafValues>
            -4.7919350862503052e-01 6.6408053040504456e-02</leafValues></_>
        <_>
          <internalNodes>
            0 -1 599 -2.7999315410852432e-02</internalNodes>
          <leafValues>
            -7.2641009092330933e-01 4.1335508227348328e-02</leafValues></_>
        <_>
          <internalNodes>
            0 -1 618 -2.2390075027942657e-03</internalNodes>
          <leafValues>
            2.5688979029655457e-01 -1.6814468801021576e-01</leafValues></_>
        <_>
          <internalNodes>
            0 -1 555 -7.8963936539366841e-04</internalNodes>
          <leafValues>
            -3.5339117050170898e-01 1.0971444845199585e-01</leafValues></_>
        <_>
          <internalNodes>
            0 -1 426 -1.6317459940910339e-01</internalNodes>
          <leafValues>
            6.9832551479339600e-01 -6.3150294125080109e-02</leafValues></_>
        <_>
          <internalNodes>
            0 -1 388 -2.1532263606786728e-02</internalNodes>
          <leafValues>
            -8.5071867704391479e-01 4.5318670570850372e-02</leafValues></_>
        <_>
          <internalNodes>
            0 -1 546 1.1708161327987909e-03</internalNodes>
          <leafValues>
            -2.2139543294906616e-01 1.4680799841880798e-01</leafValues></_>
        <_>
          <internalNodes>
            0 -1 291 -1.5806118026375771e-03</internalNodes>
          <leafValues>
            4.0948519110679626e-01 -9.6687898039817810e-02</leafValues></_>
        <_>
          <internalNodes>
            0 -1 548 1.2577377259731293e-01</internalNodes>
          <leafValues>
            -3.9215010404586792e-01 1.0068236291408539e-01</leafValues></_>
        <_>
          <internalNodes>
            0 -1 371 6.7710544681176543e-04</internalNodes>
          <leafValues>
            8.9100152254104614e-02 -3.6950221657752991e-01</leafValues></_>
        <_>
          <internalNodes>
            0 -1 475 3.1898631277726963e-05</internalNodes>
          <leafValues>
            -1.3587586581707001e-01 3.0976203083992004e-01</leafValues></_>
        <_>
          <internalNodes>
            0 -1 477 -3.2131925225257874e-02</internalNodes>
          <leafValues>
            3.7388822436332703e-01 -1.0408461838960648e-01</leafValues></_>
        <_>
          <internalNodes>
            0 -1 455 -2.3886151029728353e-04</internalNodes>
          <leafValues>
            -4.8303100466728210e-01 7.4451915919780731e-02</leafValues></_>
        <_>
          <internalNodes>
            0 -1 403 4.0596807375550270e-03</internalNodes>
          <leafValues>
            -1.7113277316093445e-01 2.1810816228389740e-01</leafValues></_>
        <_>
          <internalNodes>
            0 -1 479 8.5358059732243419e-04</internalNodes>
          <leafValues>
            -1.4294399321079254e-01 2.4765720963478088e-01</leafValues></_>
        <_>
          <internalNodes>
            0 -1 625 -5.0242822617292404e-03</internalNodes>
          <leafValues>
            -7.5701963901519775e-01 4.1327107697725296e-02</leafValues></_>
        <_>
          <internalNodes>
            0 -1 183 -1.3910715468227863e-02</internalNodes>
          <leafValues>
            2.6692792773246765e-01 -1.2378250807523727e-01</leafValues></_>
        <_>
          <internalNodes>
            0 -1 282 1.2486317194998264e-02</internalNodes>
          <leafValues>
            -2.4471303820610046e-01 1.8749621510505676e-01</leafValues></_>
        <_>
          <internalNodes>
            0 -1 404 -6.3570905476808548e-03</internalNodes>
          <leafValues>
            -8.7225043773651123e-01 2.8322391211986542e-02</leafValues></_>
        <_>
          <internalNodes>
            0 -1 87 -1.5855804085731506e-02</internalNodes>
          <leafValues>
            -9.1110533475875854e-01 2.4575144052505493e-02</leafValues></_>
        <_>
          <internalNodes>
            0 -1 81 -1.4020432718098164e-03</internalNodes>
          <leafValues>
            1.3865508139133453e-01 -1.9603116810321808e-01</leafValues></_>
        <_>
          <internalNodes>
            0 -1 39 -3.1715126242488623e-03</internalNodes>
          <leafValues>
            -4.4089880585670471e-01 7.1629866957664490e-02</leafValues></_>
        <_>
          <internalNodes>
            0 -1 307 3.2978928647935390e-03</internalNodes>
          <leafValues>
            -9.4189703464508057e-02 3.3097866177558899e-01</leafValues></_>
        <_>
          <internalNodes>
            0 -1 254 -3.6217033863067627e-02</internalNodes>
          <leafValues>
            3.3298608660697937e-01 -1.0676869004964828e-01</leafValues></_>
        <_>
          <internalNodes>
            0 -1 496 6.2696218490600586e-02</internalNodes>
          <leafValues>
            -9.8620317876338959e-02 3.3366101980209351e-01</leafValues></_>
        <_>
          <internalNodes>
            0 -1 229 -6.7823991412296891e-04</internalNodes>
          <leafValues>
            2.3355460166931152e-01 -1.3667002320289612e-01</leafValues></_>
        <_>
          <internalNodes>
            0 -1 182 -3.9297207258641720e-03</internalNodes>
          <leafValues>
            2.2907987236976624e-01 -1.5004099905490875e-01</leafValues></_>
        <_>
          <internalNodes>
            0 -1 43 -3.3716194593580440e-05</internalNodes>
          <leafValues>
            1.6419588029384613e-01 -1.8646727502346039e-01</leafValues></_>
        <_>
          <internalNodes>
            0 -1 545 1.5908592939376831e-01</internalNodes>
          <leafValues>
            -1.6901087760925293e-01 2.4482682347297668e-01</leafValues></_>
        <_>
          <internalNodes>
            0 -1 46 2.6210348587483168e-03</internalNodes>
          <leafValues>
            -5.4690456390380859e-01 6.0772523283958435e-02</leafValues></_>
        <_>
          <internalNodes>
            0 -1 62 3.0186250805854797e-02</internalNodes>
          <leafValues>
            4.1240137070417404e-02 -7.1604883670806885e-01</leafValues></_>
        <_>
          <internalNodes>
            0 -1 260 -3.5542696423362941e-05</internalNodes>
          <leafValues>
            1.4041413366794586e-01 -2.0898254215717316e-01</leafValues></_>
        <_>
          <internalNodes>
            0 -1 305 -4.2443070560693741e-03</internalNodes>
          <leafValues>
            -2.3592486977577209e-01 1.5281409025192261e-01</leafValues></_>
        <_>
          <internalNodes>
            0 -1 632 -6.1063340399414301e-04</internalNodes>
          <leafValues>
            2.0614062249660492e-01 -1.4676564931869507e-01</leafValues></_>
        <_>
          <internalNodes>
            0 -1 528 -1.1377196758985519e-02</internalNodes>
          <leafValues>
            -5.7008653879165649e-01 5.1173206418752670e-02</leafValues></_>
        <_>
          <internalNodes>
            0 -1 369 2.7157450094819069e-03</internalNodes>
          <leafValues>
            7.0427350699901581e-02 -4.1682481765747070e-01</leafValues></_>
        <_>
          <internalNodes>
            0 -1 648 3.6389119923114777e-03</internalNodes>
          <leafValues>
            8.8812559843063354e-02 -3.2482126355171204e-01</leafValues></_>
        <_>
          <internalNodes>
            0 -1 622 -1.3568952272180468e-04</internalNodes>
          <leafValues>
            1.4193804562091827e-01 -1.8495079874992371e-01</leafValues></_>
        <_>
          <internalNodes>
            0 -1 592 2.4233993608504534e-03</internalNodes>
          <leafValues>
            -1.1309757083654404e-01 3.1117594242095947e-01</leafValues></_>
        <_>
          <internalNodes>
            0 -1 117 1.2211620807647705e-02</internalNodes>
          <leafValues>
            5.4634362459182739e-02 -6.3046538829803467e-01</leafValues></_>
        <_>
          <internalNodes>
            0 -1 161 4.8281939234584570e-04</internalNodes>
          <leafValues>
            1.2897893786430359e-01 -2.1537175774574280e-01</leafValues></_>
        <_>
          <internalNodes>
            0 -1 251 -5.1140571013092995e-03</internalNodes>
          <leafValues>
            2.0928670465946198e-01 -1.5308448672294617e-01</leafValues></_>
        <_>
          <internalNodes>
            0 -1 179 -1.5744464471936226e-03</internalNodes>
          <leafValues>
            1.9711415469646454e-01 -1.5784761309623718e-01</leafValues></_></weakClassifiers></_>
    <!-- stage 15 -->
    <_>
      <maxWeakCount>65</maxWeakCount>
      <stageThreshold>-1.7991682291030884e+00</stageThreshold>
      <weakClassifiers>
        <_>
          <internalNodes>
            0 -1 243 5.3614675998687744e-01</internalNodes>
          <leafValues>
            -4.8654755949974060e-01 1.9932146370410919e-01</leafValues></_>
        <_>
          <internalNodes>
            0 -1 325 -4.1223196312785149e-03</internalNodes>
          <leafValues>
            -4.2851829528808594e-01 1.2693615257740021e-01</leafValues></_>
        <_>
          <internalNodes>
            0 -1 151 2.2825235128402710e-01</internalNodes>
          <leafValues>
            -1.7074377834796906e-01 3.8772356510162354e-01</leafValues></_>
        <_>
          <internalNodes>
            0 -1 511 3.7729126051999629e-04</internalNodes>
          <leafValues>
            -3.1051629781723022e-01 1.6382266581058502e-01</leafValues></_>
        <_>
          <internalNodes>
            0 -1 330 3.2892124727368355e-04</internalNodes>
          <leafValues>
            1.0221975296735764e-01 -5.0130641460418701e-01</leafValues></_>
        <_>
          <internalNodes>
            0 -1 330 -2.0691184909082949e-04</internalNodes>
          <leafValues>
            -4.3486547470092773e-01 9.9755086004734039e-02</leafValues></_>
        <_>
          <internalNodes>
            0 -1 97 6.3076931983232498e-03</internalNodes>
          <leafValues>
            7.4358120560646057e-02 -6.0071682929992676e-01</leafValues></_>
        <_>
          <internalNodes>
            0 -1 367 7.0284318644553423e-04</internalNodes>
          <leafValues>
            -3.7760505080223083e-01 8.6936965584754944e-02</leafValues></_>
        <_>
          <internalNodes>
            0 -1 279 -2.1383786201477051e-01</internalNodes>
          <leafValues>
            4.5292991399765015e-01 -1.2973034381866455e-01</leafValues></_>
        <_>
          <internalNodes>
            0 -1 144 6.1629313975572586e-02</internalNodes>
          <leafValues>
            -2.9639659449458122e-02 5.0908762216567993e-01</leafValues></_>
        <_>
          <internalNodes>
            0 -1 530 -2.8690679464489222e-03</internalNodes>
          <leafValues>
            3.2009637355804443e-01 -1.2425448745489120e-01</leafValues></_>
        <_>
          <internalNodes>
            0 -1 523 -7.6073291711509228e-04</internalNodes>
          <leafValues>
            -1.9565120339393616e-01 2.0790387690067291e-01</leafValues></_>
        <_>
          <internalNodes>
            0 -1 211 -6.0588192939758301e-01</internalNodes>
          <leafValues>
            4.4260844588279724e-01 -7.6533824205398560e-02</leafValues></_>
        <_>
          <internalNodes>
            0 -1 424 1.3593567535281181e-02</internalNodes>
          <leafValues>
            -1.6666570305824280e-01 2.8621798753738403e-01</leafValues></_>
        <_>
          <internalNodes>
            0 -1 595 -2.3869071155786514e-02</internalNodes>
          <leafValues>
            -9.1036581993103027e-01 1.9706070423126221e-02</leafValues></_>
        <_>
          <internalNodes>
            0 -1 82 7.6636107405647635e-04</internalNodes>
          <leafValues>
            -2.0100750029087067e-01 1.6141848266124725e-01</leafValues></_>
        <_>
          <internalNodes>
            0 -1 442 -2.2141725639812648e-04</internalNodes>
          <leafValues>
            -4.6944338083267212e-01 8.2379549741744995e-02</leafValues></_>
        <_>
          <internalNodes>
            0 -1 458 2.5136180920526385e-04</internalNodes>
          <leafValues>
            -3.5497534275054932e-01 9.3540385365486145e-02</leafValues></_>
        <_>
          <internalNodes>
            0 -1 581 -5.9469532221555710e-02</internalNodes>
          <leafValues>
            4.4987940788269043e-01 -8.1968382000923157e-02</leafValues></_>
        <_>
          <internalNodes>
            0 -1 464 -1.3327365741133690e-03</internalNodes>
          <leafValues>
            -2.9369372129440308e-01 1.6820381581783295e-01</leafValues></_>
        <_>
          <internalNodes>
            0 -1 318 6.7583532072603703e-03</internalNodes>
          <leafValues>
            -1.2842190265655518e-01 3.0520191788673401e-01</leafValues></_>
        <_>
          <internalNodes>
            0 -1 300 3.2549393363296986e-03</internalNodes>
          <leafValues>
            -2.1919871866703033e-01 1.8816141784191132e-01</leafValues></_>
        <_>
          <internalNodes>
            0 -1 40 -5.0894478335976601e-03</internalNodes>
          <leafValues>
            -4.6705865859985352e-01 8.3935581147670746e-02</leafValues></_>
        <_>
          <internalNodes>
            0 -1 558 8.4592215716838837e-03</internalNodes>
          <leafValues>
            -1.1239030212163925e-01 3.0314537882804871e-01</leafValues></_>
        <_>
          <internalNodes>
            0 -1 132 -2.5073685683310032e-03</internalNodes>
          <leafValues>
            2.5714236497879028e-01 -1.0950786620378494e-01</leafValues></_>
        <_>
          <internalNodes>
            0 -1 78 -1.4821363613009453e-02</internalNodes>
          <leafValues>
            -9.2248845100402832e-01 2.4936022236943245e-02</leafValues></_>
        <_>
          <internalNodes>
            0 -1 591 -6.5153336618095636e-04</internalNodes>
          <leafValues>
            3.2269418239593506e-01 -1.0272670537233353e-01</leafValues></_>
        <_>
          <internalNodes>
            0 -1 616 1.0027939453721046e-02</internalNodes>
          <leafValues>
            1.3494020700454712e-01 -2.6274538040161133e-01</leafValues></_>
        <_>
          <internalNodes>
            0 -1 310 -9.0809715911746025e-03</internalNodes>
          <leafValues>
            -5.1692742109298706e-01 5.9875831007957458e-02</leafValues></_>
        <_>
          <internalNodes>
            0 -1 336 7.7981795184314251e-03</internalNodes>
          <leafValues>
            3.8385998457670212e-02 -7.1826136112213135e-01</leafValues></_>
        <_>
          <internalNodes>
            0 -1 172 3.8961030542850494e-02</internalNodes>
          <leafValues>
            2.9978306964039803e-02 -8.4065860509872437e-01</leafValues></_>
        <_>
          <internalNodes>
            0 -1 114 -1.4320963528007269e-03</internalNodes>
          <leafValues>
            2.2288341820240021e-01 -1.3332432508468628e-01</leafValues></_>
        <_>
          <internalNodes>
            0 -1 187 -6.5919151529669762e-04</internalNodes>
          <leafValues>
            1.4799055457115173e-01 -1.8567249178886414e-01</leafValues></_>
        <_>
          <internalNodes>
            0 -1 472 -7.9788151197135448e-04</internalNodes>
          <leafValues>
            -1.6771052777767181e-01 2.0712018013000488e-01</leafValues></_>
        <_>
          <internalNodes>
            0 -1 353 -3.6636614240705967e-03</internalNodes>
          <leafValues>
            -4.6817451715469360e-01 9.6724078059196472e-02</leafValues></_>
        <_>
          <internalNodes>
            0 -1 148 1.6920202970504761e-01</internalNodes>
          <leafValues>
            -8.4185235202312469e-02 4.3510112166404724e-01</leafValues></_>
        <_>
          <internalNodes>
            0 -1 230 3.0450034886598587e-02</internalNodes>
          <leafValues>
            4.0516767650842667e-02 -7.5104218721389771e-01</leafValues></_>
        <_>
          <internalNodes>
            0 -1 524 -2.5769468396902084e-02</internalNodes>
          <leafValues>
            2.9864215850830078e-01 -1.0119059681892395e-01</leafValues></_>
        <_>
          <internalNodes>
            0 -1 301 8.9474581182003021e-03</internalNodes>
          <leafValues>
            -8.7464734911918640e-02 4.5709168910980225e-01</leafValues></_>
        <_>
          <internalNodes>
            0 -1 662 -7.2096928488463163e-04</internalNodes>
          <leafValues>
            1.7979298532009125e-01 -1.6835936903953552e-01</leafValues></_>
        <_>
          <internalNodes>
            0 -1 188 -1.6750622540712357e-02</internalNodes>
          <leafValues>
            -3.0756178498268127e-01 1.0548911243677139e-01</leafValues></_>
        <_>
          <internalNodes>
            0 -1 272 5.2133835852146149e-03</internalNodes>
          <leafValues>
            1.0568958520889282e-01 -3.1595793366432190e-01</leafValues></_>
        <_>
          <internalNodes>
            0 -1 252 3.3133663237094879e-03</internalNodes>
          <leafValues>
            -1.4305153489112854e-01 2.2060936689376831e-01</leafValues></_>
        <_>
          <internalNodes>
            0 -1 104 -1.3035556301474571e-02</internalNodes>
          <leafValues>
            2.7336484193801880e-01 -1.5613894164562225e-01</leafValues></_>
        <_>
          <internalNodes>
            0 -1 343 -1.1161935253767297e-04</internalNodes>
          <leafValues>
            -3.0881500244140625e-01 1.0107462853193283e-01</leafValues></_>
        <_>
          <internalNodes>
            0 -1 44 2.9639545828104019e-02</internalNodes>
          <leafValues>
            -5.1579481363296509e-01 5.2951090037822723e-02</leafValues></_>
        <_>
          <internalNodes>
            0 -1 219 -2.8533791191875935e-04</internalNodes>
          <leafValues>
            2.3856347799301147e-01 -1.4543527364730835e-01</leafValues></_>
        <_>
          <internalNodes>
            0 -1 380 -3.6240033805370331e-03</internalNodes>
          <leafValues>
            -3.1845256686210632e-01 9.6924081444740295e-02</leafValues></_>
        <_>
          <internalNodes>
            0 -1 115 -1.9693562760949135e-02</internalNodes>
          <leafValues>
            1.8748079240322113e-01 -1.7227070033550262e-01</leafValues></_>
        <_>
          <internalNodes>
            0 -1 413 -3.3002560958266258e-03</internalNodes>
          <leafValues>
            -4.1569313406944275e-01 7.5559645891189575e-02</leafValues></_>
        <_>
          <internalNodes>
            0 -1 391 -2.3517619818449020e-02</internalNodes>
          <leafValues>
            -6.3737827539443970e-01 4.1264832019805908e-02</leafValues></_>
        <_>
          <internalNodes>
            0 -1 10 -1.8553355336189270e-01</internalNodes>
          <leafValues>
            3.4109136462211609e-01 -8.8387019932270050e-02</leafValues></_>
        <_>
          <internalNodes>
            0 -1 56 1.3960138894617558e-03</internalNodes>
          <leafValues>
            1.7772869765758514e-01 -1.6772004961967468e-01</leafValues></_>
        <_>
          <internalNodes>
            0 -1 226 -2.1694793831557035e-03</internalNodes>
          <leafValues>
            2.1320001780986786e-01 -1.4066818356513977e-01</leafValues></_>
        <_>
          <internalNodes>
            0 -1 390 7.4893385171890259e-03</internalNodes>
          <leafValues>
            -9.4881162047386169e-02 2.7201983332633972e-01</leafValues></_>
        <_>
          <internalNodes>
            0 -1 478 -8.4088166477158666e-04</internalNodes>
          <leafValues>
            1.6888797283172607e-01 -1.9688284397125244e-01</leafValues></_>
        <_>
          <internalNodes>
            0 -1 381 1.9300344865769148e-03</internalNodes>
          <leafValues>
            -2.2823370993137360e-01 1.3696476817131042e-01</leafValues></_>
        <_>
          <internalNodes>
            0 -1 643 4.9227080307900906e-03</internalNodes>
          <leafValues>
            7.8315272927284241e-02 -3.7938347458839417e-01</leafValues></_>
        <_>
          <internalNodes>
            0 -1 654 -1.4223923790268600e-04</internalNodes>
          <leafValues>
            -2.4855476617813110e-01 1.2003423273563385e-01</leafValues></_>
        <_>
          <internalNodes>
            0 -1 9 1.3892620801925659e-01</internalNodes>
          <leafValues>
            -5.4364535957574844e-02 5.1692730188369751e-01</leafValues></_>
        <_>
          <internalNodes>
            0 -1 626 4.8377458006143570e-04</internalNodes>
          <leafValues>
            -1.5325954556465149e-01 1.9497486948966980e-01</leafValues></_>
        <_>
          <internalNodes>
            0 -1 348 -1.6148395370692015e-03</internalNodes>
          <leafValues>
            2.4701088666915894e-01 -1.1694286018610001e-01</leafValues></_>
        <_>
          <internalNodes>
            0 -1 586 7.2500988608226180e-04</internalNodes>
          <leafValues>
            -2.5467649102210999e-01 1.2909200787544250e-01</leafValues></_>
        <_>
          <internalNodes>
            0 -1 111 2.7798404917120934e-03</internalNodes>
          <leafValues>
            1.3196022808551788e-01 -1.9977538287639618e-01</leafValues></_>
        <_>
          <internalNodes>
            0 -1 312 2.6381779462099075e-03</internalNodes>
          <leafValues>
            -9.5440536737442017e-02 2.7647909522056580e-01</leafValues></_></weakClassifiers></_>
    <!-- stage 16 -->
    <_>
      <maxWeakCount>74</maxWeakCount>
      <stageThreshold>-1.9311898946762085e+00</stageThreshold>
      <weakClassifiers>
        <_>
          <internalNodes>
            0 -1 152 4.7234299778938293e-01</internalNodes>
          <leafValues>
            -3.9949366450309753e-01 3.5944700241088867e-01</leafValues></_>
        <_>
          <internalNodes>
            0 -1 601 -1.4692728873342276e-03</internalNodes>
          <leafValues>
            2.1971280872821808e-01 -3.1186279654502869e-01</leafValues></_>
        <_>
          <internalNodes>
            0 -1 513 -8.2376622594892979e-04</internalNodes>
          <leafValues>
            -4.5431357622146606e-01 1.0968253016471863e-01</leafValues></_>
        <_>
          <internalNodes>
            0 -1 412 3.3959948923438787e-03</internalNodes>
          <leafValues>
            9.0526655316352844e-02 -5.7320338487625122e-01</leafValues></_>
        <_>
          <internalNodes>
            0 -1 576 2.4694605963304639e-04</internalNodes>
          <leafValues>
            -4.8911669850349426e-01 1.1148463934659958e-01</leafValues></_>
        <_>
          <internalNodes>
            0 -1 272 -3.1170896254479885e-03</internalNodes>
          <leafValues>
            -4.5637595653533936e-01 7.7492825686931610e-02</leafValues></_>
        <_>
          <internalNodes>
            0 -1 69 -1.8782161176204681e-01</internalNodes>
          <leafValues>
            4.8137223720550537e-01 -8.2553990185260773e-02</leafValues></_>
        <_>
          <internalNodes>
            0 -1 78 -9.7606587223708630e-04</internalNodes>
          <leafValues>
            2.2180758416652679e-01 -1.6640807688236237e-01</leafValues></_>
        <_>
          <internalNodes>
            0 -1 485 4.7832302749156952e-02</internalNodes>
          <leafValues>
            4.2245972901582718e-02 -7.4248212575912476e-01</leafValues></_>
        <_>
          <internalNodes>
            0 -1 127 1.3455658918246627e-03</internalNodes>
          <leafValues>
            -1.3996066153049469e-01 2.5611498951911926e-01</leafValues></_>
        <_>
          <internalNodes>
            0 -1 343 3.8669875357300043e-04</internalNodes>
          <leafValues>
            7.6349005103111267e-02 -5.2773994207382202e-01</leafValues></_>
        <_>
          <internalNodes>
            0 -1 61 2.3833508603274822e-03</internalNodes>
          <leafValues>
            6.7340895533561707e-02 -4.4020518660545349e-01</leafValues></_>
        <_>
          <internalNodes>
            0 -1 435 -1.4571892097592354e-04</internalNodes>
          <leafValues>
            -3.8912817835807800e-01 8.9485704898834229e-02</leafValues></_>
        <_>
          <internalNodes>
            0 -1 84 -2.2647304460406303e-02</internalNodes>
          <leafValues>
            -3.9352646470069885e-01 7.7002711594104767e-02</leafValues></_>
        <_>
          <internalNodes>
            0 -1 374 2.0220370963215828e-02</internalNodes>
          <leafValues>
            -1.0865204781293869e-01 3.1039273738861084e-01</leafValues></_>
        <_>
          <internalNodes>
            0 -1 67 1.0472192661836743e-03</internalNodes>
          <leafValues>
            -1.6260030865669250e-01 2.6761597394943237e-01</leafValues></_>
        <_>
          <internalNodes>
            0 -1 170 3.7500682473182678e-01</internalNodes>
          <leafValues>
            -5.8616589754819870e-02 6.8246042728424072e-01</leafValues></_>
        <_>
          <internalNodes>
            0 -1 59 3.2125395955517888e-04</internalNodes>
          <leafValues>
            -6.5635305643081665e-01 5.5849812924861908e-02</leafValues></_>
        <_>
          <internalNodes>
            0 -1 344 -3.2556755468249321e-04</internalNodes>
          <leafValues>
            -4.4181573390960693e-01 6.5286681056022644e-02</leafValues></_>
        <_>
          <internalNodes>
            0 -1 444 2.8805097826989368e-05</internalNodes>
          <leafValues>
            -2.6687017083168030e-01 1.0236798971891403e-01</leafValues></_>
        <_>
          <internalNodes>
            0 -1 93 9.4307505059987307e-04</internalNodes>
          <leafValues>
            4.4791083782911301e-02 -7.0330232381820679e-01</leafValues></_>
        <_>
          <internalNodes>
            0 -1 653 6.0461084358394146e-03</internalNodes>
          <leafValues>
            5.7056352496147156e-02 -4.2707383632659912e-01</leafValues></_>
        <_>
          <internalNodes>
            0 -1 336 3.1999391503632069e-03</internalNodes>
          <leafValues>
            7.4200317263603210e-02 -3.6030071973800659e-01</leafValues></_>
        <_>
          <internalNodes>
            0 -1 509 -3.8716457784175873e-03</internalNodes>
          <leafValues>
            2.9687461256980896e-01 -9.7196951508522034e-02</leafValues></_>
        <_>
          <internalNodes>
            0 -1 385 -4.2580500245094299e-02</internalNodes>
          <leafValues>
            -8.4628951549530029e-01 3.9870768785476685e-02</leafValues></_>
        <_>
          <internalNodes>
            0 -1 606 8.4311794489622116e-03</internalNodes>
          <leafValues>
            -4.5086964964866638e-01 4.6751644462347031e-02</leafValues></_>
        <_>
          <internalNodes>
            0 -1 1 -1.8446235917508602e-03</internalNodes>
          <leafValues>
            -2.4549186229705811e-01 1.1806774884462357e-01</leafValues></_>
        <_>
          <internalNodes>
            0 -1 37 -2.9356667771935463e-02</internalNodes>
          <leafValues>
            2.5744810700416565e-01 -1.4941149950027466e-01</leafValues></_>
        <_>
          <internalNodes>
            0 -1 120 3.1001433730125427e-02</internalNodes>
          <leafValues>
            4.7502599656581879e-02 -6.9679147005081177e-01</leafValues></_>
        <_>
          <internalNodes>
            0 -1 400 -8.8877300731837749e-04</internalNodes>
          <leafValues>
            -1.9049298763275146e-01 1.6071574389934540e-01</leafValues></_>
        <_>
          <internalNodes>
            0 -1 466 -3.4991460852324963e-03</internalNodes>
          <leafValues>
            -2.9305627942085266e-01 1.2192487716674805e-01</leafValues></_>
        <_>
          <internalNodes>
            0 -1 383 -7.8319132328033447e-02</internalNodes>
          <leafValues>
            4.1118866205215454e-01 -8.3773717284202576e-02</leafValues></_>
        <_>
          <internalNodes>
            0 -1 525 -5.2078219596296549e-04</internalNodes>
          <leafValues>
